svm_type c_svc
kernel_type linear
nr_class 10
total_sv 99
rho 0.12295923159970475 0.064945965868006689 -0.11125074232373403 -0.0049066826411093053 -0.063716021330109077 -0.10776206077077979 0.10434156541945813 0.010945253677772895 -0.024360409014297625 -0.057915568550472939 -0.23476029724461603 -0.12957580812891126 -0.18383974068040626 -0.21921217938981422 -0.020264398507309173 -0.11267474418939338 -0.14659873833326673 -0.18463422648559541 -0.073608733712467636 -0.12480164031113924 -0.16547477762940066 0.037164147969391895 -0.055653438429818194 -0.088231884372434788 0.10685471946342498 0.047043194695720561 0.014777404744989097 0.20975067724632823 0.12696946053861541 0.087118747053491 -0.0627189968015196 -0.09590612175324234 0.10940765138638256 0.015994529744099786 -0.020022591344318951 -0.034493683203034455 0.16359545232671982 0.079697466037172371 0.04033089112463735 0.19933349246821908 0.12812234489042676 0.076176529937529464 -0.09209127396508994 -0.12941019053050923 -0.036524703243226132
label 1 2 3 4 5 6 7 8 9 10
nr_sv 10 10 10 10 10 10 9 10 10 10
SV
0.90030951054705544 0.8565882696465833 0.72235470109351152 0.78470623920182603 0.82655623103081655 0.72707650239623789 0.92023052412742323 0.81582328314637242 0.81718434258613548 16:0.056878658 37:0.036536127 133:0.038278396 214:0.063309331 256:0.13064597 288:0.030743879 350:0.047034492 433:0.040410761 453:0.043159858 534:0.043159858 618:0.043159858 706:0.065322986 888:0.0271633 949:0.047034492 1004:0.040410761 1013:0.040410761 1021:0.0271633 1079:0.043159858 1080:0.047034492 1092:0.031654666 1126:0.040410761 1133:0.033787031 1196:0.043159858 1206:0.047034492 1296:0.086319716 1397:0.047034492 1399:0.040410761 1437:0.18813797 1462:0.047034492 1469:0.03506306 1482:0.043159858 1527:0.047034492 1569:0.065322986 1689:0.047034492 1742:0.038278396 1930:0.032661493 1983:0.029147507 2030:0.047034492 2058:0.09798448 2059:0.047034492 2073:0.038278396 2224:0.040410761 2370:0.047034492 2424:0.043159858 2441:0.094068984 2442:0.37627594 2581:0.047034492 2640:0.047034492 2786:0.23517246 2799:0.038278396 2864:0.047034492 2868:0.043159858 2869:0.040410761 2885:0.043159858 2944:0.047034492 3141:0.047034492 3148:0.029912397 3185:0.032661493 3283:0.040410761 3389:0.086319716 3453:0.047034492 3577:0.031654666 3631:0.092231638 3649:0.027780032 3746:0.031654666 3791:0.036536127 3812:0.047034492 3816:0.024564695 3855:0.038278396 3861:0.17263943 3887:0.047034492 4113:0.024120149 4119:0.094068984 4130:0.040410761 4289:0.065322986 4339:0.047034492 4360:0.047034492 4456:0.038278396 4647:0.080821523 4666:0.047034492 4684:0.038278396 4774:0.040410761 4776:0.027780032 5023:0.043159858 5034:0.029912397 5133:0.094068984 5230:0.027780032 5266:0.047034492 5307:0.030743879 5333:0.047034492 5382:0.34527886 5403:0.040410761 5696:0.047034492 5721:0.086319716 5781:0.026037763 5866:0.038278396 5882:0.14025224 5888:0.067574061 6050:0.047034492 6057:0.047034492 6256:0.043159858 6347:0.047034492 7113:0.047034492 7336:0.094068984 7359:0.47496965 7360:0.047034492 7365:0.021480265 7414:0.043159858 7504:0.043159858 7667:0.047034492 7733:0.047034492 7841:0.047034492 7847:0.032661493 7929:0.047034492 8062:0.038278396 8167:0.14110348 8208:0.12947957 8210:0.12947957 8232:0.047034492 8239:0.030743879 8351:0.14110348 8376:0.086319716 8380:0.047034492 8385:0.043159858 8537:0.094068984 
0.97799496292774057 0.90362787518657606 0.7459699955270831 0.90185463658212239 0.86828421761751551 0.79623349819154221 0.96191185032930038 0.86618036110807017 0.89267316397890972 5:0.01050063 34:0.019274252 42:0.038548504 44:0.024621103 64:0.026831439 66:0.026831439 111:0.026831439 137:0.024621103 231:0.024621103 253:0.026831439 257:0.026831439 282:0.02084251 332:0.02183641 347:0.053662877 355:0.026831439 362:0.023052845 394:0.015847481 397:0.053662877 467:0.024621103 478:0.023052845 495:0.06550923 498:0.060344438 500:0.10732575 509:0.10732575 510:0.026831439 526:0.02183641 537:0.026831439 577:0.020002179 578:0.024621103 585:0.024621103 586:0.026831439 588:0.080494316 626:0.02084251 692:0.026831439 797:0.053662877 810:0.016627575 841:0.026831439 932:0.02084251 960:0.026831439 982:0.026831439 1031:0.026831439 1125:0.053662877 1141:0.060006538 1162:0.026831439 1191:0.026831439 1267:0.026831439 1298:0.026831439 1345:0.024621103 1348:0.026831439 1386:0.036115633 1387:0.024621103 1396:0.023052845 1402:0.020002179 1419:0.026831439 1500:0.024621103 1544:0.13415719 1560:0.05261474 1562:0.024621103 1565:0.053662877 1663:0.026831439 1679:0.026831439 1680:0.026831439 1681:0.023052845 1704:0.053662877 1742:0.02183641 1756:0.026831439 1908:0.037264349 1941:0.017538247 1947:0.026831439 1974:0.016223586 2006:0.024621103 2014:0.024621103 2032:0.015165172 2058:0.018632174 2147:0.026831439 2200:0.026831439 2204:0.024621103 2224:0.023052845 2277:0.036115633 2324:0.026831439 2331:0.02084251 2349:0.32197726 2359:0.026831439 2566:0.026831439 2600:0.024621103 2622:0.049242207 2624:0.053662877 2645:0.023052845 2677:0.026831439 2731:0.026831439 2781:0.026831439 2821:0.053662877 2828:0.026831439 2832:0.02183641 2835:0.024621103 2838:0.026831439 2847:0.026831439 2868:0.07386331 2869:0.069158536 2885:0.024621103 2925:0.18782007 2941:0.024621103 3016:0.026831439 3032:0.026831439 3127:0.026831439 3132:0.04168502 3136:0.02183641 3157:0.026831439 3159:0.026831439 3162:0.053662877 3185:0.018632174 3195:0.024621103 3234:0.026831439 3319:0.024621103 3332:0.026831439 3397:0.026831439 3404:0.024621103 3417:0.026831439 3424:0.02183641 3452:0.02084251 3554:0.02084251 3602:0.026831439 3607:0.020002179 3609:0.018057816 3620:0.040004359 3640:0.026831439 3709:0.024621103 3710:0.026831439 3711:0.024621103 3721:0.026831439 3723:0.026831439 3737:0.019274252 3788:0.024621103 3789:0.024621103 3790:0.053662877 3823:0.053662877 3859:0.023052845 3885:0.026831439 3888:0.026831439 3904:0.026831439 3914:0.023052845 3925:0.024621103 3937:0.18782007 3941:0.046105691 3946:0.026831439 3973:0.026831439 4043:0.026831439 4057:0.060006538 4063:0.02183641 4125:0.053662877 4126:0.02183641 4258:0.026831439 4263:0.026831439 4274:0.018057816 4328:0.026831439 4381:0.026831439 4386:0.024621103 4444:0.026831439 4458:0.026831439 4498:0.02183641 4622:0.029707162 4651:0.026831439 4722:0.026831439 4730:0.011890139 4768:0.023052845 4776:0.031694962 4827:0.037264349 4833:0.026831439 4837:0.026831439 4838:0.053662877 4870:0.026831439 4900:0.026831439 4950:0.026831439 4999:0.026831439 5162:0.026831439 5204:0.026831439 5210:0.020002179 5232:0.018057816 5293:0.026831439 5307:0.070152986 5361:0.026831439 5385:0.026831439 5505:0.026831439 5555:0.026831439 5596:0.024621103 5606:0.026831439 5607:0.026831439 5609:0.026831439 5610:0.024621103 5611:0.026831439 5648:0.026831439 5650:0.026831439 5702:0.023052845 5720:0.024621103 5721:0.049242207 5767:0.053662877 5849:0.024621103 5861:0.014558841 5865:0.026831439 5882:0.040004359 5894:0.046105691 5899:0.56346021 5900:0.026831439 5901:0.32197726 5906:0.026831439 6171:0.026831439 6318:0.026831439 6324:0.026831439 6331:0.019274252 6339:0.024621103 6349:0.015847481 6397:0.04367282 6462:0.026831439 6500:0.026831439 6538:0.024621103 6651:0.026831439 6689:0.02183641 6798:0.087353047 6805:0.21465151 6848:0.026831439 6849:0.053662877 6904:0.026831439 6934:0.026831439 6935:0.024621103 6943:0.018632174 7004:0.023052845 7137:0.023052845 7224:0.017063916 7226:0.023052845 7311:0.026831439 7327:0.026831439 7350:0.02084251 7356:0.04367282 7359:0.02084251 7365:0.036761091 7404:0.02084251 7468:0.026831439 7469:0.080494316 7471:0.026831439 7498:0.024621103 7502:0.053662877 7655:0.026831439 7657:0.017538247 7674:0.018632174 7699:0.020002179 7748:0.080494316 7781:0.026831439 7802:0.077097007 7834:0.023052845 7851:0.024621103 7856:0.04367282 7857:0.053662877 7869:0.018057816 7888:0.02084251 7892:0.026831439 7896:0.026831439 7906:0.026831439 7909:0.062527529 7911:0.02183641 7981:0.020002179 7990:0.10732575 8014:0.035076493 8053:0.02084251 8120:0.020002179 8148:0.024621103 8208:0.024621103 8215:0.04168502 8239:0.017538247 8247:0.053662877 8335:0.026831439 8514:0.16098863 8518:0.019274252 
1.0490131899615989 1.0103973966995414 0.88848079395169111 0.96562305597293341 0.84794737258549335 0.96514855187477955 1.0425285394765087 0.95056787517246999 0.8966674938563951 5:0.021414255 6:0.023506186 9:0.023506186 21:0.025105285 28:0.023506186 31:0.025105285 47:0.027359087 59:0.027359087 65:0.022265829 70:0.027359087 74:0.075315854 82:0.054718174 104:0.027359087 115:0.027359087 122:0.027359087 124:0.054718174 130:0.054718174 172:0.027359087 176:0.025105285 177:0.054718174 178:0.050210569 200:0.023506186 212:0.023506186 271:0.027359087 331:0.027359087 339:0.023506186 394:0.016159127 395:0.10943635 438:0.016954561 439:0.020395528 442:0.022265829 463:0.027359087 467:0.025105285 470:0.027359087 498:0.012306226 553:0.021252384 590:0.025105285 591:0.018998582 619:0.022265829 623:0.027359087 643:0.025105285 658:0.027359087 668:0.027359087 715:0.027359087 740:0.054718174 767:0.027359087 777:0.021252384 810:0.016954561 812:0.025105285 838:0.018998582 858:0.027359087 892:0.027359087 924:0.054718174 930:0.027359087 932:0.021252384 933:0.027359087 947:0.082077261 948:0.027359087 963:0.027359087 971:0.054718174 976:0.027359087 1040:0.054718174 1044:0.019653286 1156:0.089063318 1307:0.013101661 1357:0.025105285 1366:0.025105285 1370:0.022265829 1429:0.22594756 1444:0.054718174 1451:0.027359087 1472:0.023506186 1495:0.027359087 1540:0.027359087 1541:0.027359087 1542:0.027359087 1604:0.027359087 1610:0.025105285 1641:0.050210569 1667:0.027359087 1677:0.027359087 1694:0.025105285 1698:0.023506186 1772:0.027359087 1790:0.012689727 1808:0.039306572 1850:0.025105285 1871:0.021252384 1913:0.050210569 1930:0.018998582 1983:0.033909122 1987:0.027359087 1997:0.027359087 2009:0.023506186 2045:0.023506186 2096:0.027359087 2132:0.027359087 2142:0.027359087 2164:0.027359087 2190:0.027359087 2203:0.047012373 2209:0.021252384 2210:0.027359087 2250:0.023506186 2255:0.022265829 2295:0.10943635 2296:0.027359087 2362:0.027359087 2367:0.021252384 2372:0.054718174 2405:0.025105285 2461:0.015800385 2492:0.050210569 2538:0.022265829 2607:0.027359087 2635:0.43774539 2646:0.054718174 2694:0.025105285 2724:0.070518559 2730:0.027359087 2833:0.027359087 2840:0.027359087 2853:0.082077261 2856:0.025105285 2870:0.054718174 2875:0.10197764 2890:0.027359087 2924:0.019653286 2938:0.027359087 3006:0.027359087 3019:0.027359087 3041:0.027359087 3136:0.044531659 3140:0.027359087 3143:0.13679544 3164:0.027359087 3176:0.054718174 3179:0.025105285 3193:0.027359087 3227:0.025105285 3257:0.022265829 3282:0.0154634 3322:0.025105285 3370:0.025105285 3398:0.016954561 3456:0.050210569 3480:0.027359087 3562:0.027359087 3585:0.16415452 3586:0.027359087 3592:0.027359087 3595:0.082077261 3635:0.050210569 3698:0.050210569 3776:0.017399483 3831:0.027359087 3873:0.025105285 3912:0.047012373 3919:0.027359087 3928:0.027359087 3944:0.025105285 3948:0.023506186 3951:0.027359087 3953:0.027359087 3976:0.027359087 3989:0.054718174 4000:0.082077261 4020:0.027359087 4093:0.054718174 4121:0.027359087 4122:0.027359087 4123:0.027359087 4124:0.12552642 4129:0.027359087 4183:0.039306572 4199:0.054718174 4213:0.020395528 4221:0.025105285 4257:0.025105285 4282:0.023506186 4289:0.018998582 4310:0.066598357 4312:0.039306572 4329:0.027359087 4330:0.027359087 4341:0.027359087 4362:0.027359087 4370:0.027359087 4398:0.017399483 4409:0.027359087 4457:0.027359087 4463:0.021252384 4479:0.018998582 4497:0.054718174 4498:0.066797488 4560:0.16415452 4597:0.015145681 4620:0.021252384 4647:0.070518559 4650:0.027359087 4655:0.027359087 4672:0.054718174 4684:0.022265829 4730:0.012123962 4865:0.016542628 4915:0.019653286 4939:0.025105285 4959:0.021252384 4985:0.034798967 5040:0.027359087 5042:0.10943635 5067:0.023506186 5081:0.025105285 5103:0.022265829 5189:0.027359087 5201:0.054718174 5203:0.027359087 5225:0.027359087 5230:0.032318253 5240:0.034798967 5242:0.016542628 5300:0.027359087 5330:0.021252384 5383:0.027359087 5473:0.027359087 5481:0.10391602 5486:0.16415452 5530:0.054718174 5599:0.086997417 5613:0.027359087 5622:0.025105285 5710:0.023506186 5742:0.025105285 5789:0.082077261 5827:0.10943635 5830:0.027359087 5848:0.027359087 5855:0.027359087 5859:0.070518559 5861:0.044535435 5888:0.058959858 6092:0.054718174 6116:0.018998582 6174:0.025105285 6187:0.027359087 6192:0.10943635 6200:0.027359087 6202:0.027359087 6266:0.032318253 6305:0.022265829 6351:0.027359087 6374:0.027359087 6376:0.017883141 6381:0.023506186 6385:0.027359087 6407:0.027359087 6415:0.018412929 6418:0.025105285 6426:0.047012373 6432:0.021252384 6449:0.022265829 6489:0.023506186 6507:0.027359087 6536:0.020395528 6574:0.022265829 6604:0.027359087 6621:0.039306572 6641:0.027359087 6649:0.025105285 6659:0.027359087 6664:0.017399483 6695:0.025105285 6797:0.025105285 6835:0.027359087 6857:0.16415452 6871:0.054718174 6884:0.023506186 6900:0.027359087 6938:0.082077261 7041:0.027359087 7056:0.027359087 7077:0.027359087 7124:0.13679544 7129:0.027359087 7132:0.027359087 7151:0.027359087 7222:0.023506186 7269:0.027359087 7281:0.021252384 7282:0.025105285 7307:0.022265829 7357:0.027359087 7359:0.042504768 7445:0.027359087 7480:0.035766283 7519:0.021252384 7552:0.027359087 7570:0.025105285 7588:0.027359087 7605:0.027359087 7607:0.027359087 7613:0.022265829 7625:0.027359087 7700:0.022265829 7708:0.027359087 7709:0.027359087 7754:0.022265829 7786:0.025105285 7813:0.082077261 7817:0.082077261 7847:0.018998582 7936:0.027359087 7962:0.023506186 8019:0.13679544 8034:0.027359087 8048:0.075315854 8108:0.027359087 8169:0.019653286 8206:0.027359087 8307:0.033909122 8329:0.021252384 8331:0.025105285 8336:0.027359087 8396:0.039306572 8408:0.027359087 8428:0.027359087 8458:0.027359087 8485:0.023506186 8533:0.027359087 8539:0.027359087 8571:0.027359087 8577:0.027359087 8579:0.18804949 8580:0.082077261 8581:0.027359087 8587:0.025105285 8600:0.027359087 8642:0.27359087 8643:0.027359087 8664:0.027359087 
0.88853020312997844 0.84769736160352782 0.70905921624690416 0.96509525854139266 0.7149680399492111 0.74323257542429289 0.89515456620667411 0.83592140891544631 0.76379961650450479 1:0.026404916 5:0.062002246 22:0.026404916 95:0.022686389 291:0.018967861 299:0.026404916 303:0.026404916 324:0.026404916 341:0.026404916 349:0.024229717 480:0.02148929 538:0.052809833 543:0.026404916 578:0.048459434 579:0.026404916 592:0.022686389 670:0.024229717 672:0.026404916 749:0.026404916 1044:0.018967861 1067:0.026404916 1131:0.026404916 1141:0.019684217 1156:0.34382864 1161:0.026404916 1172:0.024229717 1182:0.026404916 1188:0.026404916 1305:0.026404916 1358:0.02051119 1361:0.02051119 1379:0.02148929 1439:0.026404916 1447:0.21123933 1449:0.026404916 1452:0.026404916 1461:0.052809833 1466:0.026404916 1469:0.019684217 1640:0.024229717 1642:0.026404916 1668:0.022686389 1673:0.026404916 1683:0.052809833 1705:0.024229717 1767:0.026404916 1776:0.014617463 1782:0.026404916 1926:0.13202458 2078:0.045372778 2094:0.01833599 2109:0.024229717 2160:0.048459434 2167:0.29075661 2204:0.024229717 2247:0.022686389 2278:0.045372778 2356:0.026404916 2423:0.026404916 2425:0.039368435 2532:0.026404916 2543:0.026404916 2597:0.014924101 2620:0.024229717 2733:0.019684217 2855:0.12114859 2909:0.026404916 2916:0.026404916 2942:0.026404916 2943:0.026404916 2966:0.026404916 3012:0.024229717 3018:0.10561967 3047:0.026404916 3058:0.02051119 3287:0.026404916 3297:0.2041775 3358:0.013790491 3369:0.015249334 3386:0.026404916 3430:0.019684217 3433:0.026404916 3438:0.02148929 3557:0.026404916 3590:0.026404916 3620:0.019684217 3622:0.026404916 3632:0.02051119 3666:0.048459434 3673:0.052296538 3675:0.017259452 3676:0.026404916 3684:0.026404916 3687:0.026404916 3746:0.017770763 3750:0.024229717 3764:0.024229717 3776:0.016792662 3787:0.026404916 3816:0.027580981 3866:0.052809833 3898:0.01596569 3940:0.024229717 4017:0.024229717 4079:0.036671981 4118:0.024229717 4126:0.02148929 4153:0.045372778 4154:0.042978581 4158:0.048459434 4160:0.026404916 4183:0.037935722 4232:0.024229717 4234:0.026404916 4249:0.022686389 4277:0.024229717 4310:0.012855137 4325:0.016792662 4355:0.026404916 4396:0.064467871 4498:0.042978581 4597:0.014617463 4660:0.02148929 4743:0.026404916 4840:0.024229717 4854:0.026404916 4875:0.026404916 4880:0.019684217 4910:0.024229717 4918:0.026404916 4954:0.026404916 4985:0.016792662 5011:0.026404916 5014:0.039368435 5021:0.024229717 5034:0.016792662 5168:0.026404916 5197:0.026404916 5220:0.026404916 5307:0.017259452 5335:0.026404916 5363:0.026404916 5402:0.026404916 5431:0.022686389 5450:0.10255595 5488:0.026404916 5520:0.052809833 5726:0.026404916 5743:0.02148929 5837:0.026404916 5867:0.024229717 5882:0.25589482 5888:0.075871445 5935:0.024229717 6030:0.02148929 6116:0.01833599 6180:0.026404916 6292:0.082044758 6321:0.024229717 6329:0.026404916 6348:0.022686389 6349:0.015595564 6350:0.052809833 6361:0.026404916 6409:0.052809833 6413:0.022686389 6474:0.052809833 6483:0.026404916 6485:0.052809833 6487:0.090745555 6502:0.051778356 6567:0.026404916 6585:0.02051119 6676:0.035541526 6680:0.02051119 6743:0.085957161 6853:0.024229717 6859:0.052809833 6866:0.019684217 6924:0.02051119 7031:0.026404916 7163:0.026404916 7220:0.026404916 7227:0.026404916 7230:0.026404916 7316:0.01833599 7355:0.024229717 7452:0.02148929 7473:0.026404916 7538:0.022686389 7562:0.01833599 7591:0.082044758 7621:0.026404916 7647:0.026404916 7662:0.079214749 7665:0.024229717 7672:0.026404916 7780:0.026404916 7782:0.024229717 7783:0.60731307 7784:0.026404916 7858:0.026404916 7866:0.014617463 7869:0.053312288 7917:0.026404916 7920:0.024229717 7927:0.026404916 7969:0.026404916 8026:0.02148929 8151:0.026404916 8168:0.026404916 8233:0.026404916 8239:0.017259452 8275:0.026404916 8302:0.026404916 8304:0.026404916 8328:0.026404916 8339:0.052809833 8341:0.055007971 8433:0.052809833 8474:0.026404916 8494:0.024229717 8503:0.026404916 8583:0.02051119 8641:0.026404916 
1.0729658794510522 1.012190426654257 0.8663777761925554 1.0236339069665392 0.91312846856407581 0.87939804359629925 1.1140665895576591 1.0280634757710088 0.96277956067201387 5:0.060303695 25:0.038522331 45:0.038522331 72:0.038522331 214:0.025925899 256:0.053501028 260:0.038522331 262:0.038522331 338:0.038522331 382:0.038522331 494:0.077044661 495:0.031350887 507:0.11556699 519:0.023872478 573:0.031350887 589:0.033097343 610:0.038522331 699:0.033097343 800:0.083017066 876:0.038522331 981:0.094052661 1039:0.038522331 1090:0.066194686 1091:0.077044661 1094:0.038522331 1142:0.021772883 1181:0.11556699 1187:0.031350887 1309:0.035348916 1310:0.038522331 1311:0.038522331 1312:0.077044661 1386:0.051851799 1394:0.029923929 1502:0.038522331 1575:0.038522331 1628:0.023292465 1718:0.035348916 1790:0.017867477 1861:0.035348916 1865:0.038522331 1898:0.077044661 1983:0.047744957 2013:0.062701774 2281:0.038522331 2323:0.038522331 2444:0.077044661 2448:0.038522331 2612:0.038522331 2626:0.038522331 2645:0.066194686 2680:0.035348916 2683:0.026750514 2822:0.038522331 2905:0.077044661 2926:0.038522331 2931:0.028717452 3128:0.038522331 3282:0.021772883 3365:0.033097343 3372:0.31814025 3423:0.028717452 3536:0.038522331 3596:0.038522331 3631:0.025179944 3770:0.30817865 3816:0.02011905 3836:0.038522331 4113:0.039509913 4163:0.038522331 4273:0.099292029 4334:0.038522331 4398:0.024498941 4534:0.038522331 4535:0.038522331 4608:0.028717452 4611:0.038522331 4612:0.038522331 4622:0.021325527 4730:0.017070864 4776:0.022752485 4879:0.038522331 4889:0.038522331 5007:0.11556699 5031:0.050359889 5038:0.038522331 5143:0.035348916 5163:0.038522331 5230:0.04550497 5382:0.035348916 5420:0.038522331 5421:0.077044661 5431:0.033097343 5538:0.040238101 5548:0.035348916 5549:0.038522331 5630:0.038522331 5769:0.031350887 5790:0.033097343 5819:0.033097343 6006:0.13238937 6131:0.025925899 6209:0.038522331 6384:0.23113398 6415:0.025925899 6460:0.038522331 6469:0.035348916 6475:0.033097343 6553:0.025925899 6576:0.038522331 6632:0.038522331 6691:0.038522331 6762:0.025925899 7131:0.035348916 7174:0.11556699 7232:0.038522331 7240:0.038522331 7338:0.2094675 7398:0.035348916 7400:0.038522331 7402:0.038522331 7481:0.025925899 7498:0.60093158 7501:0.038522331 7551:0.038522331 7564:0.038522331 7581:0.038522331 7624:0.038522331 7631:0.038522331 7663:0.077044661 7665:0.10604675 7666:0.038522331 7668:0.038522331 7727:0.035348916 7782:0.10604675 7866:0.021325527 7903:0.077044661 7905:0.038522331 7974:0.035348916 7988:0.035348916 8053:0.059847857 8182:0.035348916 8432:0.038522331 8450:0.062701774 8454:0.038522331 8562:0.038522331 
0.83549694951546061 0.76848506402651562 0.66287412878984442 0.73933820560151609 0.66759727033326788 0.88154436901224353 0.78879583122589925 0.73541193622133749 0.70866443825665504 5:0.014890263 29:0.34913591 42:0.054663135 205:0.07609585 357:0.038047925 438:0.023578487 455:0.034913591 478:0.032689746 585:0.034913591 592:0.032689746 759:0.038047925 923:0.038047925 1044:0.027331568 1358:0.029555413 1478:0.065379493 1531:0.034913591 1590:0.038047925 1613:0.032689746 1779:0.07609585 1790:0.035294875 1794:0.4565751 1946:0.052842158 1983:0.023578487 2008:0.030964798 2009:0.032689746 2156:0.038047925 2301:0.1521917 2387:0.038047925 2392:0.07609585 2487:0.038047925 2488:0.038047925 2643:0.07609585 2773:0.038047925 2777:0.038047925 2814:0.038047925 2831:0.038047925 2850:0.038047925 2889:0.034913591 2898:0.038047925 2950:0.023578487 3031:0.059110826 3058:0.029555413 3130:0.030964798 3134:0.034913591 3171:0.038047925 3211:0.038047925 3358:0.039742565 3402:0.038047925 3404:0.034913591 3406:0.038047925 3549:0.032689746 3566:0.098069239 3611:0.038047925 3614:0.038047925 3691:0.07609585 3791:0.029555413 3875:0.030964798 3899:0.038047925 4005:0.038047925 4007:0.038047925 4009:0.034913591 4072:0.034913591 4076:0.034913591 4079:0.026421079 4271:0.028363794 4359:0.038047925 4439:0.038047925 4451:0.032689746 4597:0.021062901 4670:0.032689746 4822:0.038047925 4830:0.038047925 4843:0.027331568 4915:0.027331568 4985:0.096788937 5022:0.038047925 5023:0.034913591 5033:0.056727589 5282:0.065379493 5296:0.034913591 5307:0.42278747 5313:0.034913591 5330:0.029555413 5408:0.07609585 5627:0.038047925 5643:0.034913591 5664:0.032689746 5702:0.065379493 5748:0.038047925 5781:0.042125801 5800:0.049739702 5887:0.032689746 6136:0.038047925 6167:0.038047925 6250:0.030964798 6273:0.038047925 6449:0.030964798 6459:0.11414377 6511:0.038047925 6536:0.028363794 6680:0.029555413 6901:0.10474077 6927:0.07609585 6932:0.032689746 6942:0.038047925 6954:0.038047925 7090:0.038047925 7134:0.07609585 7224:0.096788937 7273:0.038047925 7290:0.032689746 7377:0.038047925 7436:0.038047925 7450:0.038047925 7480:0.049739702 7483:0.038047925 7496:0.038047925 7590:0.038047925 7601:0.038047925 7603:0.038047925 7630:0.038047925 7775:0.038047925 7803:0.038047925 7811:0.038047925 7843:0.032689746 7856:0.15482399 7866:0.021062901 7888:0.029555413 7910:0.10474077 8115:0.038047925 8153:0.034913591 8192:0.038047925 8210:0.13965437 8215:0.029555413 8252:0.19023962 8291:0.038047925 8383:0.038047925 8635:0.34243132 
0.52610196103578 0.49715766309077603 0.4170547865939413 0.48164126672693364 0.45898102272477626 0.44076831698459668 0.45564672568026732 0.45818639663239014 0.43865294507760116 5:0.16012245 12:0.051143548 42:0.036738754 71:0.083244995 95:0.043941151 100:0.0344201 217:0.046930416 278:0.051143548 306:0.038126261 362:0.043941151 365:0.046930416 617:0.041622497 703:0.14079125 832:0.051143548 833:0.046930416 908:0.043941151 950:0.046930416 1004:0.043941151 1044:0.036738754 1126:0.043941151 1165:0.046930416 1175:0.043941151 1186:0.043941151 1296:0.046930416 1351:0.046930416 1352:0.041622497 1386:0.0344201 1463:0.035514887 1478:0.13182345 1497:0.046930416 1518:0.043941151 1522:0.051143548 1531:0.046930416 1560:0.033429745 1620:0.051143548 1643:0.038126261 1707:0.051143548 1790:0.023721466 1959:0.12677564 2060:0.051143548 2070:0.079456038 2410:0.039728019 2416:0.051143548 2525:0.046930416 2584:0.051143548 2622:0.046930416 2936:0.52729382 2999:0.093860832 3132:0.039728019 3148:0.032525622 3416:0.1022871 3549:0.087882303 3554:0.039728019 3604:0.051143548 3628:0.038126261 3765:0.051143548 3791:0.039728019 3816:0.026710731 3862:0.087882303 3898:0.030923864 3909:0.051143548 3916:0.046930416 3939:0.0344201 4076:0.046930416 4181:0.043941151 4268:0.087882303 4371:0.046930416 4432:0.039728019 4448:0.051143548 4451:0.043941151 4481:0.093860832 4498:0.041622497 4499:0.1022871 4597:0.02831249 4725:0.043941151 4730:0.045327713 4821:0.079456038 4895:0.051143548 4908:0.046930416 4953:0.10654466 4981:0.051143548 5140:0.051143548 5200:0.051143548 5235:0.051143548 5247:0.051143548 5307:0.13371898 5471:0.051143548 5538:0.026710731 5643:0.046930416 5674:0.15891208 5702:0.043941151 5743:0.041622497 5782:0.043941151 5800:0.033429745 5882:0.038126261 5888:0.14695502 5946:0.051143548 5979:0.046930416 6086:0.051143548 6250:0.041622497 6349:0.030206968 6356:0.043941151 6420:0.051143548 6451:0.15343065 6509:0.051143548 6510:0.046930416 6552:0.051143548 6720:0.038126261 6785:0.40914839 6921:0.046930416 6936:0.046930416 7020:0.051143548 7042:0.046930416 7224:0.16262811 7359:0.039728019 7378:0.051143548 7451:0.051143548 7480:0.033429745 7593:0.051143548 7728:0.051143548 7750:0.051143548 7752:0.051143548 7802:0.036738754 7814:0.043941151 7866:0.02831249 7880:0.051143548 7888:0.039728019 7908:0.051143548 7911:0.041622497 7968:0.030923864 8077:0.11918406 8088:0.051143548 8091:0.051143548 8187:0.051143548 8215:0.15891208 8534:0.051143548 8583:0.039728019 8662:0.046930416 
0.48368462094393855 0.45612686942550701 0.38322589783378441 0.42333440328329475 0.40410338611472429 0.43103054989235062 0.53236279059105607 0.43222095519046938 0.40710280112148323 5:0.07041416 42:0.22618314 71:0.073214298 112:0.027874917 181:0.041275484 254:0.044980951 290:0.041275484 322:0.041275484 381:0.044980951 390:0.041275484 429:0.044980951 434:0.044980951 436:0.041275484 662:0.044980951 950:0.082550969 1044:0.032311878 1132:0.044980951 1351:0.041275484 1361:0.069881896 1569:0.031235482 1643:0.033532195 1698:0.038646414 1715:0.034940948 1762:0.041275484 1766:0.044980951 1790:0.020863122 1946:0.031235482 2085:0.089961901 2228:0.044980951 2379:0.044980951 2385:0.041275484 2404:0.044980951 2415:0.044980951 2490:0.036607149 2531:0.044980951 2538:0.036607149 2546:0.089961901 2743:0.044980951 2829:0.041275484 2832:0.036607149 2903:0.036607149 2936:0.42511056 3046:0.038646414 3071:0.044980951 3132:0.034940948 3191:0.089961901 3231:0.038646414 3244:0.036607149 3305:0.044980951 3358:0.046984385 3383:0.082550969 3499:0.044980951 3549:0.038646414 3617:0.044980951 3632:0.13976379 3664:0.044980951 3703:0.089961901 3704:0.041275484 3711:0.082550969 3746:0.030272613 3761:0.044980951 3816:0.023492192 3839:0.041275484 3842:0.036607149 3852:0.044980951 3920:0.13494285 3941:0.077292828 4018:0.044980951 4047:0.041275484 4062:0.21964289 4080:0.044980951 4088:0.044980951 4101:0.044980951 4113:0.023067055 4181:0.038646414 4183:0.032311878 4207:0.044980951 4233:0.089961901 4371:0.041275484 4477:0.044980951 4558:0.044980951 4597:0.024900945 4730:0.01993295 4848:0.044980951 5232:0.030272613 5307:0.088204775 5404:0.089961901 5482:0.082550969 5538:0.023492192 5596:0.041275484 5674:0.17470474 5882:0.033532195 5887:0.038646414 5888:0.22618314 5898:0.044980951 5958:0.044980951 6174:0.041275484 6292:0.034940948 6397:0.036607149 6496:0.041275484 6510:0.16510194 6607:0.044980951 6895:0.044980951 6898:0.034940948 6921:0.041275484 6932:0.38646414 6933:0.044980951 6936:0.041275484 6988:0.044980951 6999:0.044980951 7014:0.038646414 7137:0.038646414 7267:0.044980951 7365:0.02054243 7382:0.044980951 7492:0.036607149 7529:0.038646414 7530:0.044980951 7538:0.038646414 7561:0.044980951 7591:0.069881896 7656:0.044980951 7700:0.036607149 7789:0.044980951 7856:0.073214298 7861:0.044980951 7864:0.089961901 7866:0.049801891 7911:0.10982145 7922:0.044980951 8012:0.044980951 8014:0.029401592 8021:0.038646414 8068:0.044980951 8209:0.24765291 8215:0.034940948 8250:0.044980951 8307:0.027874917 8448:0.041275484 8530:0.077292828 8637:0.20637742 
0.65601293365130064 0.60898981562046184 0.50772487120589649 0.57388316535095041 0.58129017249256432 0.51894557915443551 0.60874588093883131 0.64762374657269928 0.61299683719076103 5:0.043347996 42:0.031826671 100:0.014909014 112:0.013728168 168:0.019033043 194:0.020327838 201:0.040655676 217:0.020327838 225:0.020327838 249:0.060983514 252:0.02215275 291:0.015913335 310:0.02215275 313:0.024527023 332:0.018028721 377:0.015383219 439:0.016514332 442:0.018028721 452:0.019033043 464:0.11076375 478:0.11419826 491:0.02215275 547:0.02215275 559:0.02215275 584:0.02215275 608:0.060983514 659:0.02215275 728:0.02215275 768:0.32695448 770:0.02215275 777:0.017208131 798:0.02215275 836:0.019033043 878:0.0443055 884:0.019033043 908:0.019033043 932:0.068832523 945:0.0443055 974:0.02215275 1004:0.019033043 1037:0.017208131 1043:0.020327838 1044:0.015913335 1051:0.02215275 1089:0.020327838 1141:0.016514332 1180:0.0443055 1250:0.02215275 1297:0.02215275 1336:0.020327838 1352:0.018028721 1374:0.019033043 1378:0.019033043 1391:0.06645825 1408:0.02215275 1490:0.02215275 1497:0.020327838 1498:0.02215275 1509:0.02215275 1569:0.015383219 1589:0.016514332 1628:0.013394624 1646:0.15506925 1696:0.02215275 1776:0.012263512 1856:0.02215275 1903:0.02215275 1908:0.015383219 1910:0.02215275 1959:0.027456337 1974:0.013394624 1980:0.014088423 2008:0.018028721 2033:0.044727042 2058:0.015383219 2067:0.020327838 2069:0.019033043 2070:0.017208131 2092:0.02215275 2109:0.020327838 2124:0.0443055 2127:0.11076375 2167:0.20327838 2236:0.020327838 2266:0.02215275 2289:0.02215275 2304:0.07613217 2425:0.016514332 2428:0.020327838 2547:0.02215275 2579:0.02215275 2597:0.01252077 2625:0.088610999 2633:0.06645825 2634:0.020327838 2638:0.020327838 2675:0.015913335 2676:0.018028721 2736:0.02215275 2761:0.019033043 2832:0.036057442 2867:0.02215275 2888:0.02215275 2936:0.24742955 2937:0.02215275 2950:0.013728168 2995:0.11076375 2997:0.02215275 3058:0.017208131 3118:0.02215275 3139:0.018028721 3148:0.014088423 3217:0.02215275 3225:0.019033043 3228:0.02215275 3244:0.018028721 3309:0.0443055 3311:0.020327838 3313:0.040655676 3331:0.02215275 3335:0.032906149 3347:0.02215275 3354:0.0443055 3357:0.0443055 3358:0.04627885 3359:0.02215275 3360:0.02215275 3368:0.018028721 3369:0.012793628 3437:0.0443055 3438:0.036057442 3439:0.020327838 3446:0.02215275 3452:0.034416262 3457:0.02215275 3491:0.02215275 3515:0.016514332 3538:0.040655676 3566:0.019033043 3582:0.016514332 3600:0.02215275 3616:0.02215275 3625:0.088610999 3632:0.017208131 3649:0.013084102 3673:0.010968716 3776:0.014088423 3778:0.038066085 3786:0.02215275 3791:0.034416262 3809:0.02215275 3816:0.0925577 3914:0.019033043 3925:0.040655676 3941:0.038066085 3948:0.019033043 3952:0.02215275 3969:0.02215275 4047:0.020327838 4059:0.02215275 4063:0.018028721 4114:0.02215275 4136:0.02215275 4182:0.018028721 4183:0.015913335 4235:0.020327838 4236:0.0443055 4253:0.020327838 4266:0.06645825 4274:0.014909014 4294:0.02215275 4310:0.032354955 4315:0.018028721 4326:0.02215275 4349:0.020327838 4431:0.02215275 4568:0.02215275 4571:0.020327838 4597:0.012263512 4616:0.02215275 4667:0.02215275 4675:0.02215275 4730:0.0098168148 4737:0.02215275 4744:0.015383219 4747:0.02215275 4769:0.015913335 4775:0.02215275 4776:0.013084102 4787:0.1329165 4805:0.02215275 4817:0.019033043 4821:0.017208131 4827:0.030766438 4842:0.030766438 4844:0.033028663 4863:0.018028721 4906:0.020327838 4952:0.02215275 4953:0.046149657 4956:0.040655676 4959:0.017208131 4969:0.02215275 4978:0.02215275 5002:0.019033043 5016:0.06645825 5021:0.020327838 5054:0.0443055 5096:0.02215275 5125:0.051624392 5157:0.02215275 5198:0.020327838 5240:0.028176847 5242:0.013394624 5263:0.0443055 5298:0.02215275 5370:0.06645825 5441:0.02215275 5465:0.019033043 5472:0.02215275 5482:0.40655676 5538:0.011569712 5540:0.02215275 5552:0.02215275 5580:0.02215275 5618:0.019033043 5645:0.02215275 5646:0.019033043 5670:0.02215275 5674:0.43020327 5684:0.020327838 5742:0.020327838 5781:0.012263512 5795:0.02215275 5796:0.02215275 5800:0.028960086 5802:0.02215275 5818:0.02215275 5819:0.019033043 5866:0.018028721 5882:0.082571658 5886:0.06645825 5888:0.12730668 6041:0.02215275 6042:0.02215275 6078:0.02215275 6116:0.015383219 6127:0.02215275 6134:0.02215275 6155:0.02215275 6163:0.02215275 6240:0.02215275 6302:0.02215275 6356:0.019033043 6370:0.013728168 6481:0.11076375 6486:0.02215275 6487:0.038066085 6501:0.019033043 6513:0.0443055 6600:0.02215275 6605:0.02215275 6626:0.02215275 6709:0.06645825 6716:0.02215275 6743:0.036057442 6746:0.020327838 6749:0.02215275 6762:0.014909014 6784:0.02215275 6798:0.024040333 6843:0.020327838 6860:0.06645825 6882:0.02215275 6896:0.019033043 6898:0.017208131 6914:0.0443055 6932:0.019033043 6935:0.020327838 6991:0.036057442 6992:0.02215275 7010:0.015383219 7014:0.019033043 7055:0.02215275 7059:0.02215275 7128:0.02215275 7155:0.017208131 7176:0.02215275 7223:0.016514332 7387:0.02215275 7401:0.017208131 7447:0.02215275 7462:0.02215275 7591:0.086040654 7613:0.018028721 7642:0.040655676 7649:0.057099128 7652:0.012793628 7664:0.018028721 7674:0.015383219 7675:0.02215275 7686:0.02215275 7699:0.016514332 7729:0.02215275 7753:0.02215275 7788:0.0443055 7790:0.02215275 7816:0.060983514 7853:0.019033043 7866:0.012263512 7911:0.036057442 7935:0.088610999 7964:0.0443055 7968:0.013394624 8014:0.028960086 8066:0.0443055 8080:0.02215275 8081:0.02215275 8090:0.019033043 8150:0.02215275 8215:0.051624392 8235:0.036057442 8237:0.02215275 8244:0.02215275 8253:0.0443055 8254:0.02215275 8277:0.02215275 8326:0.020327838 8362:0.02215275 8363:0.013728168 8367:0.02215275 8382:0.02215275 8391:0.090143606 8434:0.02215275 8442:0.02215275 8451:0.020327838 8456:0.019033043 8477:0.017208131 8522:0.02215275 8530:0.019033043 8583:0.034416262 8590:0.020327838 8610:0.02215275 8636:0.02215275 8637:0.14229487 
0.83123959011239601 0.79274108329526183 0.65986293689040321 0.73467437544017378 0.70723884675401671 0.74150214332068121 0.83466457174560049 0.74132960992854136 0.72099859507990505 20:0.035495088 48:0.035495088 179:0.08262618 181:0.037909777 249:0.037909777 259:0.04131309 438:0.025601926 439:0.092393685 440:0.04131309 442:0.03362211 448:0.032091775 514:0.04131309 535:0.04131309 577:0.030797895 592:0.035495088 879:0.04131309 916:0.037909777 1044:0.029677086 1248:0.04131309 1276:0.037909777 1361:0.032091775 1440:0.03362211 1518:0.10648526 1523:0.037909777 1563:0.04131309 1569:0.028688462 1622:0.04131309 1724:0.04131309 1744:0.037909777 1755:0.032091775 1790:0.019161891 2003:0.04131309 2009:0.035495088 2100:0.04131309 2166:0.04131309 2224:0.14198035 2225:0.04131309 2300:0.04131309 2493:0.04131309 2647:0.04131309 2762:0.04131309 2845:0.04131309 2846:0.04131309 2924:0.029677086 3132:0.032091775 3244:0.03362211 3349:0.49575708 3353:0.45444399 3366:0.04131309 3369:0.023859083 3405:0.04131309 3438:0.03362211 3548:0.04131309 3582:0.030797895 3609:0.027804107 3675:0.027004111 3740:0.037909777 3898:0.024979893 3954:0.04131309 4009:0.037909777 4072:0.037909777 4113:0.021186109 4118:0.037909777 4278:0.04131309 4332:0.08262618 4349:0.075819554 4398:0.026273772 4432:0.032091775 4460:0.03362211 4569:0.04131309 4597:0.022870459 4709:0.04131309 4730:0.036615134 4771:0.030797895 4827:0.028688462 4840:0.11372933 4841:0.04131309 4842:0.028688462 4982:0.037909777 4985:0.026273772 5051:0.04131309 5057:0.08262618 5083:0.04131309 5232:0.027804107 5282:0.035495088 5296:0.037909777 5307:0.243037 5389:0.08262618 5434:0.08262618 5448:0.04131309 5566:0.04131309 5604:0.45444399 5668:0.037909777 5674:0.032091775 5677:0.04131309 5800:0.027004111 5839:0.04131309 5883:0.04131309 5884:0.04131309 5888:0.11870834 6062:0.035495088 6116:0.028688462 6340:0.04131309 6630:0.04131309 6636:0.10648526 6689:0.03362211 6696:0.04131309 6937:0.04131309 6947:0.035495088 7140:0.04131309 7224:0.052547545 7365:0.018867348 7401:0.032091775 7404:0.032091775 7519:0.032091775 7591:0.032091775 7652:0.023859083 7694:0.037909777 7743:0.08262618 7856:0.03362211 7866:0.045740919 7888:0.032091775 7910:0.075819554 7981:0.030797895 8021:0.070990176 8224:0.04131309 8235:0.067244219 
-0.89891974683428755 0.97155620649482555 0.79913270786088786 0.91554939571620952 0.80654938346897587 0.78416959039921674 1.0443178814159313 0.89027343834645256 0.86580421479336978 3:0.044623064 16:0.026981263 50:0.036315888 62:0.030031751 134:0.044623064 138:0.038338928 200:0.038338928 233:0.092960879 256:0.03098696 384:0.044623064 427:0.036315888 452:0.038338928 484:0.044623064 581:0.036315888 606:0.036315888 620:0.044623064 646:0.044623064 741:0.044623064 810:0.027653133 821:0.044623064 824:0.044623064 855:0.04094708 883:0.044623064 1064:0.069325887 1136:0.044623064 1174:0.044623064 1225:0.038338928 1255:0.044623064 1273:0.04094708 1518:0.038338928 1526:0.08189416 1546:0.034662944 1586:0.089246128 1672:0.044623064 1790:0.062091381 1846:0.036315888 1857:0.044623064 1930:0.03098696 1980:0.028378807 1986:0.044623064 2024:0.08189416 2191:0.044623064 2245:0.044623064 2277:0.030031751 2406:0.044623064 2419:0.033265399 2611:0.044623064 2631:0.044623064 2642:0.044623064 2692:0.044623064 2746:0.038338928 2778:0.033265399 2842:0.089246128 2843:0.044623064 2844:0.044623064 2869:0.11501678 2877:0.04094708 2891:0.04094708 2895:0.044623064 3116:0.044623064 3165:0.04094708 3185:0.03098696 3216:0.044623064 3219:0.58009983 3220:0.034662944 3260:0.044623064 3282:0.025221027 3355:0.044623064 3356:0.044623064 3387:0.089246128 3414:0.044623064 3423:0.033265399 3430:0.033265399 3450:0.032054791 3451:0.044623064 3546:0.089246128 3624:0.044623064 3716:0.044623064 3808:0.044623064 3844:0.038338928 3864:0.032054791 3993:0.044623064 4011:0.044623064 4079:0.03098696 4098:0.038338928 4113:0.022883524 4215:0.04094708 4238:0.044623064 4257:0.04094708 4354:0.04094708 4365:0.044623064 4366:0.044623064 4452:0.044623064 4474:0.033265399 4550:0.044623064 4561:0.044623064 4608:0.033265399 4622:0.024702823 4721:0.036315888 4742:0.038338928 4769:0.064109583 4784:0.089246128 4796:0.044623064 4893:0.044623064 5092:0.044623064 5182:0.060063503 5242:0.026981263 5310:0.044623064 5334:0.044623064 5428:0.030031751 5437:0.24568248 5438:0.044623064 5453:0.038338928 5494:0.04094708 5507:0.036315888 5562:0.13865177 5629:0.04094708 5632:0.40160757 5676:0.044623064 5756:0.044623064 5781:0.024702823 5812:0.069325887 5821:0.044623064 5861:0.04842529 5870:0.044623064 5935:0.04094708 6048:0.04094708 6079:0.089246128 6258:0.04094708 6331:0.032054791 6446:0.089246128 6479:0.038338928 6501:0.038338928 6525:0.044623064 6635:0.044623064 6662:0.033265399 6733:0.044623064 6824:0.044623064 6825:0.044623064 6832:0.044623064 6836:0.13386919 6850:0.04094708 6852:0.044623064 6883:0.044623064 6956:0.044623064 7024:0.044623064 7365:0.040757972 7370:0.04094708 7392:0.05154131 7428:0.04094708 7589:0.044623064 7623:0.038338928 7650:0.089246128 7802:0.032054791 7814:0.038338928 7824:0.044623064 7869:0.030031751 7870:0.044623064 7909:0.034662944 7984:0.036315888 8017:0.034662944 8026:0.036315888 8047:0.044623064 8070:0.044623064 8090:0.038338928 8190:0.044623064 8235:0.036315888 8307:0.027653133 8368:0.044623064 8372:0.044623064 8413:0.16378832 8414:0.04094708 8463:0.04094708 8507:0.044623064 8512:0.089246128 8519:0.044623064 
-0.85058976860415481 0.88964119448764312 0.81817820988116952 0.84801563607251085 0.75043151533978136 0.74203829565555002 0.94890102199658155 0.84191776991063005 0.78768956799632128 54:0.056982427 288:0.1117389 361:0.056982427 380:0.056982427 388:0.11396485 496:0.10457659 532:0.052288296 595:0.056982427 630:0.056982427 735:0.11870849 823:0.056982427 853:0.056982427 928:0.14687327 1220:0.39887699 1274:0.037246301 1321:0.056982427 1353:0.056982427 1356:0.037246301 1428:0.10457659 1521:0.046374391 1524:0.052288296 1548:0.056982427 1585:0.45585941 1980:0.072477915 2291:0.11396485 2298:0.10457659 2470:0.056982427 2704:0.17094728 2791:0.052288296 2912:0.056982427 2945:0.037246301 2950:0.035312291 2956:0.097915515 2972:0.17094728 2975:0.048957757 2976:0.056982427 2978:0.11396485 2979:0.056982427 2991:0.042479001 3069:0.11396485 3121:0.11396485 3160:0.056982427 3186:0.22792971 3321:0.056982427 3358:0.20832141 3455:0.044263627 3554:0.044263627 3731:0.056982427 3798:0.056982427 3850:0.042479001 3874:0.046374391 3911:0.074492602 4079:0.039569496 4192:0.11396485 4398:0.036238957 4418:0.044263627 4487:0.11396485 4538:0.056982427 4597:0.031544827 4600:0.056982427 4622:0.031544827 4703:0.048957757 4985:0.036238957 5202:0.056982427 5230:0.033655591 5272:0.056982427 5481:0.12367553 5754:0.20915318 5765:0.048957757 5861:0.061837765 5986:0.040933088 6064:0.048957757 6212:0.048957757 6259:0.056982427 6272:0.056982427 6640:0.044263627 6664:0.036238957 6680:0.044263627 7021:0.11396485 7058:0.056982427 7136:0.056982427 7153:0.052288296 7157:0.056982427 7198:0.056982427 7370:0.10457659 7542:0.056982427 7543:0.17094728 7837:0.048957757 7941:0.11396485 8286:0.052288296 8485:0.048957757 
-0.79282364522344662 0.82511959874979757 0.67259751565214509 0.79814090685817762 0.71773104287846978 0.70189498888204493 0.88481278577565903 0.79831685676199526 0.75998232786317321 293:0.1251187 713:0.1251187 893:0.1074986 915:0.1251187 1137:0.1251187 1315:0.097191502 1643:0.093272925 2083:0.1251187 2107:0.1251187 2148:0.1251187 2292:0.1251187 2317:0.1251187 2882:0.34443482 2883:0.1251187 2924:0.089878499 2947:0.1251187 3152:0.1251187 3442:0.37535611 3673:0.061951296 4304:0.1251187 4519:0.089878499 4525:0.1251187 4744:0.086884403 4746:0.1074986 4799:0.1251187 4813:0.11481161 5400:0.1251187 5431:0.1074986 5744:0.25023741 5779:0.1251187 6093:0.1251187 6177:0.093272925 6606:0.11481161 6815:0.1251187 7244:0.37535611 7356:0.1018262 7371:0.1251187 7406:0.1251187 7652:0.072258396 7702:0.1251187 7836:0.1018262 7966:0.1251187 7999:0.11481161 8014:0.081783266 8375:0.1251187 
-0.79479666438146768 0.85881881879601907 0.68492828579456977 0.78405137825780358 0.71384058951129425 0.70763177718795844 0.8574042827395818 0.78833752265507662 0.75443067885505266 35:0.1260547 218:0.1260547 349:0.11567049 1237:0.1260547 1295:0.10258794 1810:0.1260547 1936:0.1260547 2102:0.10258794 2232:0.1260547 2271:0.10830278 2534:0.1260547 2882:0.34701148 3410:0.10830278 3816:0.065834564 4152:0.1260547 4648:0.1260547 5009:0.2521094 5120:0.11567049 5190:0.1260547 5304:0.1260547 5414:0.1260547 5800:0.16479015 6141:0.10258794 6158:0.1260547 6185:0.1260547 6294:0.1260547 6561:0.1260547 6562:0.1260547 6563:0.1260547 6572:0.1260547 6637:0.078116719 6747:0.1260547 6913:0.3781641 6960:0.1260547 6981:0.1260547 7045:0.1260547 7103:0.2521094 7111:0.1260547 7193:0.1260547 7349:0.1260547 7710:0.1260547 8161:0.11567049 8464:0.1260547 8502:0.1260547 8658:0.1260547 
-0.76371913121392465 0.88139123789600038 0.70506813627409359 0.76627848278027055 0.92770205192765831 0.7082032089417748 0.85497189250575722 0.76892847532146147 0.74547521007374484 313:0.092416221 498:0.075090376 591:0.11592593 914:0.16694023 1119:0.38903467 1130:0.13586209 1534:0.16694023 2945:0.10911971 3251:0.50082068 3269:0.16694023 4150:0.15318793 4597:0.092416221 4678:0.12967822 5354:0.16694023 5581:0.16694023 5731:0.14343052 5986:0.11992081 6036:0.16694023 6040:0.16694023 6206:0.13586209 6560:0.16694023 6637:0.10345368 6791:0.14343052 7210:0.33388045 7364:0.14343052 8378:0.16694023 8471:0.15318793 
-0.85271513045740432 0.89912975843060883 0.77418773430052124 0.83975245508461693 0.80106085041870978 0.74910755157999687 0.98704773740840457 0.93170630311789848 0.86516991085068751 19:0.041929215 156:0.034063285 313:0.025295332 458:0.041929215 496:0.083858429 498:0.041106117 502:0.13708011 508:0.091386738 567:0.041929215 642:0.045693369 743:0.045693369 822:0.091386738 826:0.091386738 844:0.041929215 849:0.068126571 852:0.045693369 864:0.045693369 884:0.039258505 975:0.045693369 992:0.13708011 993:0.13708011 1169:0.091386738 1170:0.091386738 1243:0.045693369 1357:0.041929215 1365:0.045693369 1387:0.041929215 1446:0.045693369 1494:0.091386738 1564:0.045693369 1715:0.03549435 1790:0.10596779 1791:0.074373882 1847:0.083858429 1858:0.074373882 1902:0.091386738 1996:0.045693369 2013:0.037186941 2025:0.039258505 2045:0.039258505 2047:0.045693369 2062:0.045693369 2068:0.041929215 2118:0.39258505 2119:0.045693369 2125:0.045693369 2181:0.045693369 2201:0.13708011 2509:0.083858429 2548:0.045693369 2572:0.091386738 2616:0.045693369 2672:0.037186941 2767:0.041929215 2794:0.045693369 2973:0.045693369 3001:0.045693369 3026:0.041929215 3083:0.039258505 3293:0.068126571 3455:0.03549435 3465:0.039258505 3554:0.070988701 3556:0.13708011 3749:0.091386738 3773:0.045693369 3862:0.039258505 3955:0.13708011 3991:0.045693369 3992:0.045693369 4051:0.091386738 4090:0.045693369 4133:0.13708011 4227:0.18277348 4228:0.31985358 4229:0.091386738 4343:0.091386738 4401:0.091386738 4489:0.13708011 4598:0.13708011 4622:0.025295332 4644:0.041929215 4710:0.045693369 4770:0.041929215 4826:0.045693369 4867:0.041929215 4930:0.045693369 4933:0.041929215 5031:0.02986726 5175:0.041929215 5240:0.029059486 5292:0.045693369 5321:0.045693369 5349:0.083858429 5365:0.18277348 5452:0.16771686 5458:0.045693369 5477:0.045693369 5528:0.045693369 5562:0.070988701 5563:0.041929215 5589:0.10218986 5621:0.045693369 5683:0.041929215 5684:0.041929215 5717:0.045693369 5754:0.041929215 5822:0.045693369 6266:0.053975845 6316:0.034063285 6575:0.041929215 6590:0.091386738 6757:0.091386738 6766:0.22846684 6778:0.091386738 6892:0.13625314 6909:0.045693369 6967:0.13708011 7229:0.045693369 7268:0.045693369 7532:0.12578764 7944:0.045693369 8014:0.02986726 8029:0.045693369 8030:0.045693369 8032:0.045693369 8090:0.039258505 8143:0.083858429 8189:0.045693369 8346:0.045693369 8396:0.032823641 
-0.90055242208538389 0.95287551923173752 0.80235781020832164 0.91365330176788695 0.84499322773240548 0.79215020609910725 1.0210258156945544 0.89329158015685484 0.89311716729454549 51:0.067632798 52:0.062061305 155:0.067632798 214:0.045517524 717:0.067632798 763:0.067632798 849:0.050418592 860:0.067632798 1063:0.058108268 1090:0.058108268 1100:0.12412261 1186:0.058108268 1345:0.062061305 1617:0.12412261 1618:0.2028984 1628:0.081788123 1631:0.15761033 1694:0.062061305 1709:0.27053119 1790:0.031369532 1792:0.2028984 2065:0.1352656 2066:0.1352656 2097:0.067632798 2443:0.039946031 2446:0.2028984 2451:0.067632798 2725:0.048583738 2884:0.067632798 2907:0.067632798 3080:0.062061305 3087:0.046965282 3136:0.055042054 3283:0.058108268 3325:0.055042054 3618:0.067632798 3810:0.067632798 3826:0.067632798 3922:0.037440752 4032:0.12412261 4094:0.067632798 4126:0.055042054 4204:0.067632798 4405:0.1352656 4472:0.067632798 4475:0.067632798 4517:0.067632798 4530:0.067632798 4579:0.050418592 4631:0.067632798 4694:0.045517524 5144:0.067632798 5231:0.062061305 5262:0.067632798 5406:0.067632798 5781:0.037440752 5798:0.062061305 5834:0.54106239 6210:0.067632798 6337:0.067632798 6564:0.12412261 6568:0.067632798 6658:0.067632798 6728:0.067632798 6888:0.12412261 7231:0.067632798 7350:0.052536775 7351:0.1352656 7352:0.067632798 7365:0.030887342 7381:0.067632798 7407:0.068145052 7456:0.1352656 7497:0.2028984 7520:0.062061305 7565:0.12412261 7638:0.067632798 7700:0.055042054 7934:0.1352656 8126:0.067632798 8269:0.067632798 8586:0.067632798 
-0.83010266961110646 0.90570505185087413 0.7210298597571495 0.82576956626457543 0.73070288161751074 0.73087555107437085 0.90903566337713959 0.8064499729056771 0.76383874949757813 5:0.046140604 108:0.054093546 138:0.05064802 235:0.05064802 529:0.058949741 540:0.058949741 730:0.058949741 762:0.058949741 782:0.05064802 819:0.045791825 854:0.05064802 862:0.11789948 893:0.05064802 988:0.054093546 1138:0.058949741 1141:0.043945585 1207:0.058949741 1281:0.058949741 1338:0.058949741 1478:0.05064802 1524:0.10818709 2033:0.039673743 2077:0.058949741 2098:0.058949741 2304:0.05064802 2486:0.11789948 2691:0.058949741 2711:0.054093546 2761:0.05064802 2774:0.058949741 2810:0.058949741 2815:0.058949741 2873:0.095950927 2879:0.047975463 2918:0.054093546 2919:0.058949741 2945:0.038532227 3062:0.17684922 3125:0.058949741 3133:0.058949741 3147:0.10129604 3174:0.058949741 3220:0.045791825 3597:0.23579896 3814:0.058949741 3863:0.054093546 3869:0.058949741 3875:0.047975463 3891:0.058949741 3892:0.058949741 3949:0.058949741 4030:0.10818709 4079:0.04093563 4097:0.058949741 4104:0.058949741 4132:0.058949741 4213:0.043945585 4467:0.058949741 4474:0.043945585 4536:0.058949741 4597:0.03263391 4678:0.045791825 4908:0.054093546 5018:0.17684922 5155:0.058949741 5156:0.058949741 5193:0.058949741 5410:0.11789948 5478:0.058949741 5631:0.10129604 5652:0.058949741 5711:0.058949741 5765:0.10129604 5800:0.038532227 5808:0.058949741 5930:0.065267819 5947:0.05064802 6003:0.05064802 6178:0.058949741 6179:0.058949741 6189:0.058949741 6216:0.054093546 6332:0.058949741 6333:0.058949741 6381:0.05064802 6634:0.41264819 6730:0.054093546 6854:0.058949741 6980:0.047975463 7104:0.058949741 7105:0.058949741 7222:0.05064802 7255:0.058949741 7259:0.054093546 7313:0.27475095 7507:0.058949741 7508:0.058949741 7598:0.058949741 7699:0.087891171 7968:0.035643865 7993:0.058949741 8026:0.047975463 8035:0.058949741 8065:0.058949741 8158:0.058949741 8161:0.054093546 8180:0.1831673 8373:0.05064802 8404:0.05064802 8456:0.05064802 8470:0.11789948 8497:0.058949741 8513:0.058949741 8529:0.058949741 8638:0.41264819 8649:0.11789948 
-0.7412707418225839 0.78078047105461101 0.68521322366316073 0.86107890749169047 0.69210629480298169 0.72792764044298597 0.84323548613295174 0.90034905107599816 0.91458652806595186 5:0.036110109 14:0.022093765 43:0.011945717 83:0.011945717 91:0.011464088 138:0.026425106 196:0.015378223 227:0.015378223 233:0.010678881 313:0.0085132105 366:0.015378223 367:0.010051905 394:0.036331425 421:0.030756447 450:0.076891117 483:0.030756447 497:0.32294269 498:0.17984683 576:0.015378223 580:0.014111387 581:0.012515363 601:0.011046883 626:0.011945717 636:0.015378223 704:0.012515363 706:0.010678881 732:0.015378223 757:0.22696862 800:0.011046883 807:0.015378223 809:0.012515363 810:0.0095299609 813:0.015378223 820:0.015378223 835:0.014111387 844:0.028222775 849:0.022928177 866:0.092487871 867:0.015378223 872:0.012515363 888:0.017762424 890:0.015378223 912:0.0090828564 913:0.014111387 921:0.037546088 961:0.028222775 989:0.32456191 1007:0.015378223 1041:0.02010381 1064:0.011945717 1106:0.015378223 1141:0.022928177 1164:0.013212553 1183:0.015378223 1270:0.013212553 1274:0.010051905 1283:0.013212553 1288:0.018596836 1299:0.015378223 1307:0.036821452 1358:0.095565736 1378:0.013212553 1386:0.010349692 1475:0.015378223 1505:0.015378223 1510:0.015378223 1521:0.012515363 1607:0.011464088 1608:0.015378223 1623:0.012515363 1650:0.082797539 1652:0.015378223 1727:0.011046883 1776:0.025539632 1808:0.011046883 1827:0.030756447 1830:0.015378223 1847:0.014111387 1866:0.092487871 1900:0.015378223 1921:0.015378223 1927:0.10570042 1941:0.010051905 1958:0.015378223 1959:0.0095299609 1974:0.018596836 1992:0.015378223 2019:0.049104132 2027:0.014111387 2039:0.11891298 2040:0.014111387 2053:0.014111387 2145:0.015378223 2162:0.22527653 2163:0.014111387 2165:0.015378223 2170:0.015378223 2187:0.015378223 2285:0.014111387 2321:0.015378223 2334:0.015378223 2335:0.047782868 2336:0.030756447 2339:0.015378223 2363:0.015378223 2381:0.015378223 2389:0.015378223 2419:0.011464088 2425:0.011464088 2434:0.015378223 2438:0.047317408 2443:0.018165713 2445:0.015378223 2461:0.062168485 2463:0.014111387 2490:0.012515363 2494:0.013212553 2542:0.015378223 2571:0.014111387 2599:0.015378223 2602:0.022093765 2637:0.030756447 2652:0.011046883 2676:0.012515363 2688:0.015378223 2724:0.013212553 2732:0.015378223 2752:0.030756447 2785:0.012515363 2875:0.011464088 2901:0.030756447 2924:0.011046883 2950:0.038119844 3078:0.10764756 3130:0.012515363 3147:0.13212553 3166:0.013212553 3198:0.014111387 3208:0.015378223 3230:0.015378223 3265:0.015378223 3310:0.015378223 3335:0.076143761 3358:0.024094745 3400:0.015378223 3420:0.010678881 3422:0.014111387 3455:0.011945717 3472:0.015378223 3503:0.015378223 3519:0.015378223 3539:0.0097800465 3594:0.015378223 3650:0.042334162 3653:0.04613467 3654:0.062576814 3655:0.04613467 3657:0.015378223 3658:0.015378223 3659:0.015378223 3660:0.015378223 3677:0.011945717 3689:0.014111387 3692:0.013212553 3774:0.011464088 3778:0.013212553 3818:0.030756447 3845:0.014111387 3850:0.011464088 3864:0.011046883 3898:0.018596836 3911:0.030155715 3915:0.013212553 3921:0.015378223 3926:0.011945717 3939:0.031049077 4022:0.030756447 4030:0.014111387 4033:0.014111387 4050:0.014111387 4052:0.013212553 4071:0.015378223 4084:0.095565736 4086:0.030756447 4126:0.012515363 4150:0.12700249 4151:0.015378223 4157:0.011945717 4175:0.0095299609 4189:0.015378223 4213:0.011464088 4248:0.030756447 4268:0.013212553 4295:0.0097800465 4297:0.014111387 4347:0.015378223 4403:0.023891434 4418:0.011945717 4436:0.05644555 4456:0.012515363 4470:0.010349692 4474:0.034392265 4509:0.015378223 4522:0.0097800465 4532:0.011464088 4540:0.039120186 4541:0.014111387 4542:0.015378223 4559:0.015378223 4575:0.23782595 4576:0.015378223 4587:0.015378223 4656:0.015378223 4660:0.012515363 4691:0.022093765 4727:0.030756447 4728:0.015378223 4766:0.015378223 4771:0.011464088 4776:0.0090828564 4827:0.010678881 4845:0.028222775 4863:0.012515363 4896:0.015378223 4935:0.011464088 4953:0.010678881 4965:0.015378223 4966:0.015378223 4977:0.010678881 4979:0.015378223 4983:0.011464088 4992:0.010678881 4997:0.013212553 5033:0.011464088 5034:0.019560093 5039:0.015378223 5064:0.014111387 5067:0.013212553 5074:0.012515363 5076:0.014111387 5151:0.015378223 5182:0.031049077 5230:0.0090828564 5232:0.010349692 5242:0.018596836 5276:0.015378223 5288:0.013212553 5324:0.015378223 5368:0.014111387 5428:0.010349692 5523:0.013212553 5538:0.0080315818 5546:0.014111387 5560:0.015378223 5584:0.015378223 5615:0.015378223 5631:0.013212553 5732:0.015378223 5755:0.015378223 5778:0.013212553 5792:0.015378223 5812:0.011945717 5823:0.012515363 5880:0.015378223 5892:0.011464088 5947:0.013212553 5986:0.53025036 5988:0.015378223 5989:0.015378223 5990:0.015378223 6098:0.014111387 6116:0.010678881 6130:0.014111387 6137:0.015378223 6145:0.015378223 6175:0.013212553 6193:0.015378223 6197:0.015378223 6201:0.012515363 6252:0.015378223 6258:0.014111387 6281:0.04613467 6298:0.014111387 6325:0.061512894 6370:0.0095299609 6376:0.02010381 6386:0.028222775 6416:0.033140648 6423:0.014111387 6428:0.014111387 6434:0.015378223 6438:0.015378223 6466:0.015378223 6479:0.013212553 6487:0.013212553 6488:0.070556937 6503:0.04613467 6516:0.026425106 6573:0.015378223 6585:0.011945717 6640:0.011945717 6676:0.010349692 6730:0.042334162 6765:0.0092984178 6798:0.0083442828 6898:0.011945717 6930:0.012515363 6983:0.015378223 7004:0.013212553 7013:0.015378223 7016:0.013212553 7049:0.015378223 7057:0.015378223 7100:0.014111387 7155:0.011945717 7159:0.014111387 7166:0.015378223 7190:0.014111387 7191:0.025030726 7196:0.010051905 7277:0.013212553 7283:0.012515363 7284:0.04613467 7300:0.014111387 7306:0.025030726 7310:0.026425106 7313:0.011945717 7344:0.010349692 7375:0.076891117 7434:0.076891117 7442:0.035837151 7461:0.015378223 7492:0.012515363 7499:0.015378223 7566:0.015378223 7571:0.011046883 7573:0.015378223 7574:0.015378223 7576:0.014111387 7578:0.037546088 7613:0.012515363 7634:0.013212553 7652:0.026643636 7727:0.014111387 7771:0.015378223 7806:0.030756447 7819:0.022928177 7874:0.028222775 7932:0.013212553 7958:0.0086917964 7968:0.027895254 7999:0.014111387 8040:0.015378223 8041:0.013212553 8082:0.015378223 8118:0.015378223 8138:0.030756447 8235:0.037546088 8259:0.013212553 8261:0.061512894 8263:0.015378223 8286:0.014111387 8322:0.028222775 8410:0.18497574 8413:0.014111387 8420:0.039637659 8421:0.0095299609 8456:0.013212553 8486:0.015378223 8510:0.030756447 8511:0.014111387 8588:0.015378223 8612:0.015378223 8616:0.011464088 8619:0.015378223 8648:0.015378223 
-0.79585988104254135 0.86789540587529246 0.69969097521433821 0.78914860894259165 0.71010364535220594 0.73977442547202887 0.90439060812653038 0.82003301951349217 0.7664222230719745 5:0.067073492 10:0.028564609 14:0.020519268 23:0.028564609 100:0.019224257 102:0.028564609 112:0.017701629 171:0.026211498 208:0.028564609 268:0.026211498 288:0.018671125 318:0.024541938 323:0.049083877 343:0.028564609 364:0.028564609 438:0.017701629 498:0.025696949 530:0.026211498 617:0.023246928 619:0.023246928 643:0.026211498 695:0.028564609 706:0.019835715 735:0.019835715 806:0.028564609 854:0.024541938 861:0.028564609 863:0.028564609 891:0.028564609 904:0.028564609 925:0.028564609 970:0.028564609 1037:0.022188827 1050:0.028564609 1096:0.028564609 1127:0.026211498 1177:0.028564609 1193:0.026211498 1307:0.095752709 1337:0.028564609 1346:0.026211498 1352:0.023246928 1356:0.037342251 1395:0.028564609 1469:0.021294215 1492:0.028564609 1530:0.028564609 1560:0.018671125 1643:0.021294215 1664:0.024541938 1719:0.028564609 1720:0.028564609 1823:0.024541938 1885:0.028564609 1893:0.028564609 1934:0.028564609 1941:0.018671125 1959:0.035403258 1980:0.054498468 1991:0.028564609 2019:0.015201586 2032:0.016144763 2034:0.028564609 2091:0.024541938 2093:0.026211498 2209:0.022188827 2212:0.028564609 2251:0.028564609 2253:0.028564609 2256:0.026211498 2268:0.028564609 2282:0.028564609 2313:0.024541938 2360:0.041038535 2397:0.026211498 2478:0.028564609 2576:0.028564609 2618:0.026211498 2701:0.049083877 2702:0.028564609 2750:0.028564609 2790:0.028564609 2792:0.028564609 2795:0.024541938 2825:0.028564609 2873:0.023246928 2881:0.11425844 2913:0.026211498 2914:0.028564609 2918:0.026211498 2939:0.11425844 2945:0.037342251 3029:0.028564609 3043:0.028564609 3050:0.028564609 3147:0.098167753 3178:0.057129218 3183:0.028564609 3207:0.024541938 3270:0.028564609 3314:0.028564609 3368:0.023246928 3420:0.019835715 3449:0.026211498 3450:0.020519268 3464:0.028564609 3515:0.021294215 3591:0.028564609 3593:0.028564609 3623:0.028564609 3638:0.057129218 3648:0.028564609 3652:0.028564609 3654:0.023246928 3673:0.014143485 3755:0.028564609 3758:0.028564609 3760:0.026211498 3813:0.028564609 3825:0.026211498 3840:0.026211498 3841:0.026211498 3858:0.026211498 4010:0.026211498 4083:0.028564609 4106:0.028564609 4111:0.078634493 4168:0.028564609 4191:0.022188827 4314:0.026211498 4374:0.028564609 4456:0.023246928 4510:0.028564609 4596:0.028564609 4608:0.021294215 4686:0.052422995 4711:0.024541938 4714:0.019835715 4715:0.026211498 4744:0.099178576 4781:0.028564609 4802:0.028564609 4844:0.021294215 4867:0.026211498 4886:0.052422995 4943:0.021294215 4951:0.026211498 4961:0.023246928 5002:0.024541938 5047:0.028564609 5065:0.028564609 5110:0.028564609 5116:0.028564609 5223:0.028564609 5233:0.028564609 5241:0.021294215 5319:0.028564609 5320:0.057129218 5386:0.028564609 5481:0.061997064 5485:0.028564609 5495:0.057129218 5589:0.021294215 5631:0.049083877 5634:0.028564609 5637:0.026211498 5666:0.024541938 5731:0.024541938 5809:0.028564609 5986:0.061557803 5987:0.028564609 6012:0.024541938 6016:0.024541938 6065:0.028564609 6087:0.028564609 6135:0.026211498 6160:0.028564609 6169:0.028564609 6191:0.028564609 6211:0.028564609 6282:0.028564609 6295:0.028564609 6334:0.028564609 6352:0.028564609 6358:0.026211498 6387:0.022188827 6396:0.028564609 6398:0.028564609 6403:0.026211498 6415:0.076897027 6419:0.028564609 6426:0.024541938 6435:0.028564609 6519:0.028564609 6620:0.028564609 6621:0.020519268 6676:0.019224257 6738:0.028564609 6791:0.12270969 6809:0.11425844 6820:0.026211498 6855:0.028564609 6874:0.028564609 6891:0.085693827 6939:0.65698601 6957:0.028564609 7069:0.028564609 7087:0.028564609 7107:0.028564609 7183:0.028564609 7188:0.25708148 7223:0.021294215 7237:0.028564609 7259:0.026211498 7313:0.044377654 7361:0.028564609 7403:0.028564609 7426:0.023246928 7467:0.11425844 7512:0.028564609 7693:0.028564609 7711:0.028564609 7846:0.022188827 7848:0.028564609 7890:0.028564609 7893:0.028564609 7926:0.028564609 7954:0.11425844 7963:0.057129218 7965:0.11425844 8009:0.028564609 8022:0.028564609 8036:0.028564609 8064:0.028564609 8094:0.057129218 8145:0.026211498 8212:0.39990453 8268:0.028564609 8327:0.028564609 8379:0.028564609 8435:0.026211498 8528:0.024541938 8532:0.026211498 
-0.78913001259354776 -0.85619952723946058 0.73130358136631068 0.76719967351601959 0.74256111262617619 0.71205830481161991 0.84827775166746966 0.83762229926593257 0.80245660656464657 5:0.013295499 38:0.031174306 137:0.031174306 226:0.033972949 266:0.031174306 313:0.01880704 335:0.062348613 377:0.047182704 383:0.033972949 404:0.026389995 493:0.033972949 539:0.033972949 553:0.026389995 583:0.033972949 634:0.033972949 650:0.031174306 704:0.027648433 733:0.033972949 803:0.042106409 838:0.023591352 874:0.033972949 888:0.019620015 943:0.021605683 954:0.031174306 964:0.029188638 995:0.075978001 1019:0.023591352 1021:0.019620015 1029:0.1358918 1074:0.031174306 1126:0.029188638 1128:0.1358918 1129:0.033972949 1133:0.048808652 1187:0.0829453 1194:0.062348613 1307:0.032537785 1354:0.067945899 1383:0.033972949 1404:0.033972949 1433:0.033972949 1443:0.033972949 1463:0.16513946 1464:0.067945899 1465:0.2038377 1467:0.033972949 1503:0.031174306 1571:0.033972949 1628:0.020541689 1653:0.033972949 1725:0.031174306 1726:0.043211367 1733:0.031174306 1739:0.033972949 1755:0.026389995 1844:0.033972949 1882:0.027648433 1917:0.067945899 1952:0.067945899 1964:0.031174306 1995:0.067945899 2050:0.087565913 2099:0.031174306 2269:0.033972949 2271:0.029188638 2515:0.031174306 2575:0.033972949 2590:0.062348613 2617:0.027648433 2623:0.10191885 2627:0.031174306 2634:0.031174306 2641:0.067945899 2649:0.033972949 2661:0.033972949 2669:0.033972949 2681:0.033972949 2697:0.033972949 2708:0.067945899 2748:0.033972949 3034:0.033972949 3036:0.067945899 3073:0.033972949 3077:0.031174306 3085:0.029188638 3093:0.27178359 3109:0.033972949 3205:0.033972949 3210:0.033972949 3235:0.087565913 3282:0.019201565 3289:0.033972949 3293:0.075978001 3350:0.033972949 3368:0.027648433 3381:0.027648433 3432:0.033972949 3532:0.026389995 3537:0.15587153 3607:0.025326 3610:0.033972949 3613:0.033972949 3672:0.033972949 3759:0.029188638 3771:0.067945899 3816:0.017743046 3867:0.033972949 3903:0.093522919 3922:0.01880704 3956:0.022864122 3963:0.033972949 3966:0.033972949 3994:0.048808652 3997:0.033972949 4016:0.033972949 4065:0.031174306 4078:0.033972949 4230:0.027648433 4231:0.10191885 4232:0.031174306 4235:0.062348613 4265:0.12469723 4272:0.027648433 4292:0.033972949 4325:0.021605683 4397:0.033972949 4441:0.031174306 4479:0.023591352 4531:0.027648433 4562:0.033972949 4582:0.031174306 4589:0.062348613 4626:0.058377276 4629:0.23781065 4639:0.033972949 4665:0.033972949 4684:0.055296867 4726:0.033972949 4730:0.015054842 4824:0.027648433 4844:0.025326 4945:0.033972949 4947:0.033972949 4987:0.033972949 5014:0.202608 5062:0.033972949 5134:0.029188638 5180:0.033972949 5331:0.067945899 5340:0.033972949 5343:0.033972949 5346:0.033972949 5347:0.033972949 5350:0.067945899 5351:0.067945899 5353:0.033972949 5360:0.033972949 5376:0.033972949 5416:0.033972949 5417:0.033972949 5426:0.033972949 5435:0.033972949 5463:0.067945899 5509:0.067945899 5535:0.033972949 5544:0.050652001 5585:0.033972949 5590:0.033972949 5608:0.031174306 5675:0.031174306 5697:0.067945899 5729:0.067945899 5730:0.033972949 5734:0.033972949 5747:0.033972949 5800:0.022206262 5851:0.058377276 5859:0.029188638 5861:0.018433852 5874:0.062348613 5890:0.026389995 5907:0.033972949 5911:0.087565913 5914:0.058377276 5940:0.033972949 5941:0.031174306 5943:0.033972949 5944:0.033972949 5954:0.033972949 5955:0.033972949 5956:0.033972949 5959:0.033972949 5976:0.033972949 5978:0.033972949 5980:0.1358918 5992:0.033972949 5995:0.033972949 5998:0.10191885 6008:0.033972949 6009:0.067945899 6030:0.027648433 6069:0.067945899 6116:0.047182704 6140:0.033972949 6183:0.033972949 6223:0.067945899 6225:0.033972949 6226:0.033972949 6349:0.040130958 6369:0.033972949 6371:0.033972949 6380:0.033972949 6402:0.2038377 6405:0.033972949 6406:0.033972949 6498:0.029188638 6523:0.16986475 6554:0.060196437 6591:0.033972949 6613:0.033972949 6788:0.033972949 6844:0.033972949 6851:0.033972949 6872:0.033972949 6878:0.033972949 6879:0.033972949 6945:0.031174306 6946:0.067945899 6947:0.029188638 6963:0.033972949 6982:0.033972949 6987:0.026389995 6989:0.033972949 6990:0.033972949 6994:0.031174306 7061:0.15587153 7062:0.033972949 7063:0.10191885 7064:0.033972949 7065:0.033972949 7175:0.033972949 7196:0.022206262 7242:0.12469723 7248:0.062348613 7256:0.033972949 7272:0.033972949 7392:0.098100073 7407:0.017115131 7474:0.031174306 7480:0.022206262 7487:0.031174306 7488:0.033972949 7539:0.033972949 7554:0.033972949 7562:0.047182704 7571:0.024404326 7757:0.067945899 7802:0.097617305 7843:0.029188638 7958:0.057604695 7959:0.033972949 7962:0.087565913 7976:0.031174306 8072:0.031174306 8074:0.033972949 8075:0.033972949 8076:0.19985636 8093:0.024404326 8129:0.033972949 8133:0.033972949 8169:0.048808652 8185:0.093522919 8218:0.031174306 8221:0.033972949 8271:0.033972949 8297:0.033972949 8310:0.033972949 8314:0.062348613 8318:0.033972949 8319:0.033972949 8320:0.033972949 8365:0.033972949 8398:0.033972949 8419:0.031174306 8439:0.067945899 8499:0.033972949 8609:0.033972949 8651:0.033972949 
-0.90638350595027906 -1.0456192793086876 0.87417364672093978 0.91635184773965939 0.85953871690813255 0.8205833910807192 1.019274576551886 0.97832633578211003 0.88229758286031279 57:0.016043959 95:0.013784535 117:0.013057163 222:0.016043959 288:0.01048706 297:0.016043959 375:0.016043959 377:0.044564713 401:0.013784535 405:0.016043959 406:0.014722281 424:0.016043959 425:0.016043959 428:0.032087918 457:0.016043959 498:0.014433273 519:0.029827561 520:0.016043959 527:0.016043959 581:0.013057163 590:0.014722281 591:0.011141178 606:0.026114326 607:0.016043959 639:0.14722281 653:0.02756907 673:0.016043959 803:0.019885041 818:0.014722281 819:0.012462857 848:0.012462857 888:0.0092656868 932:0.012462857 941:0.016043959 964:0.041353605 1047:0.011960378 1135:0.013057163 1142:0.0090680711 1168:0.029444561 1200:0.099702852 1225:0.013784535 1236:0.041353605 1271:0.016043959 1274:0.01048706 1288:0.019401907 1302:0.016043959 1307:0.0076830965 1329:0.016043959 1335:0.016043959 1356:0.03146118 1390:0.016043959 1399:0.013784535 1402:0.011960378 1493:0.016043959 1521:0.026114326 1546:0.012462857 1572:0.016043959 1658:0.014722281 1681:0.013784535 1690:0.016043959 1701:0.016043959 1711:0.016043959 1769:0.016043959 1773:0.013057163 1841:0.064175836 1859:0.016043959 1883:0.013784535 1906:0.016043959 1937:0.013784535 1942:0.016043959 1956:0.013784535 1980:0.020406865 1981:0.016043959 2010:0.016043959 2027:0.014722281 2032:0.0090680711 2252:0.016043959 2257:0.048131877 2265:0.013057163 2313:0.013784535 2327:0.016043959 2367:0.024925713 2382:0.016043959 2419:0.011960378 2435:0.032087918 2438:0.0082276359 2440:0.012462857 2443:0.018952121 2461:0.018531374 2549:0.021595478 2569:0.011141178 2652:0.011525111 2735:0.016043959 2769:0.016043959 2787:0.016043959 2950:0.0099425205 2987:0.016043959 3055:0.013784535 3074:0.014722281 3085:0.013784535 3122:0.096263753 3167:0.016043959 3184:0.014722281 3249:0.044166842 3252:0.048131877 3258:0.011525111 3294:0.016043959 3335:0.0079440085 3358:0.0083792754 3369:0.0092656868 3373:0.029444561 3398:0.0099425205 3482:0.016043959 3483:0.016043959 3485:0.016043959 3510:0.016043959 3547:0.013057163 3558:0.016043959 3576:0.014722281 3577:0.010797739 3580:0.016043959 3582:0.011960378 3682:0.014722281 3705:0.016043959 3714:0.014722281 3746:0.010797739 3776:0.051017162 3822:0.016043959 3830:0.016043959 3856:0.016043959 3859:0.02756907 3881:0.33692314 3882:0.016043959 3883:0.016043959 3884:0.016043959 3898:0.019401907 3922:0.0088817542 3958:0.014722281 4021:0.019401907 4057:0.023920756 4058:0.016043959 4066:0.051017162 4070:0.016043959 4185:0.016043959 4242:0.012462857 4267:0.068922674 4268:0.041353605 4269:0.016043959 4274:0.010797739 4478:0.016043959 4532:0.011960378 4540:0.14284805 4541:0.029444561 4543:0.016043959 4544:0.016043959 4553:0.016043959 4597:0.017763508 4620:0.012462857 4622:0.0088817542 4633:0.016043959 4673:0.012462857 4703:0.013784535 4735:0.12835167 4741:0.016043959 4744:0.011141178 4762:0.032087918 4827:0.011141178 4844:0.011960378 4858:0.011525111 4885:0.016043959 4916:0.010203432 4925:0.016043959 4935:0.011960378 4977:0.011141178 4989:0.014722281 5012:0.016043959 5014:0.047841511 5029:0.011960378 5074:0.013057163 5102:0.010797739 5182:0.032393216 5209:0.016043959 5210:0.20332642 5211:0.032087918 5217:0.014722281 5230:0.0094760604 5242:0.038803815 5248:0.016043959 5297:0.014722281 5302:0.016043959 5327:0.016043959 5344:0.016043959 5428:0.021595478 5453:0.013784535 5481:0.095760647 5542:0.026114326 5544:0.035881133 5598:0.016043959 5651:0.016043959 5664:0.013784535 5778:0.013784535 5794:0.016043959 5800:0.01048706 5820:0.016043959 5851:0.013784535 5861:0.017411027 5890:0.012462857 5894:0.013784535 5902:0.016043959 5903:0.014722281 5930:0.0088817542 5941:0.014722281 5945:0.016043959 5963:0.016043959 6022:0.016043959 6107:0.029444561 6110:0.032087918 6175:0.041353605 6198:0.80219795 6212:0.013784535 6230:0.011960378 6245:0.012462857 6266:0.018952121 6278:0.014722281 6305:0.026114326 6316:0.035881133 6414:0.016043959 6422:0.016043959 6437:0.016043959 6493:0.010797739 6533:0.029444561 6540:0.016043959 6554:0.028428181 6648:0.016043959 6662:0.011960378 6736:0.013784535 6810:0.012462857 6812:0.014722281 6822:0.016043959 6922:0.016043959 6973:0.016043959 7002:0.016043959 7025:0.016043959 7044:0.013057163 7067:0.016043959 7122:0.016043959 7144:0.048131877 7155:0.012462857 7191:0.026114326 7206:0.016043959 7223:0.023920756 7226:0.013784535 7257:0.032087918 7274:0.013784535 7283:0.013057163 7287:0.014722281 7289:0.014722281 7322:0.016043959 7356:0.013057163 7364:0.013784535 7392:0.018531374 7407:0.0080827383 7425:0.014722281 7460:0.013784535 7484:0.014722281 7571:0.023050222 7602:0.014722281 7615:0.032087918 7651:0.016043959 7680:0.016043959 7699:0.011960378 7704:0.012462857 7826:0.016043959 7834:0.013784535 7840:0.016043959 7879:0.010203432 8001:0.013784535 8015:0.014722281 8033:0.032087918 8076:0.01048706 8077:0.012462857 8093:0.011525111 8096:0.016043959 8107:0.016043959 8188:0.016043959 8266:0.016043959 8301:0.016043959 8307:0.0099425205 8401:0.016043959 8418:0.016043959 8440:0.016043959 8448:0.029444561 8449:0.011525111 8472:0.011141178 8496:0.016043959 8576:0.014722281 8601:0.014722281 8603:0.016043959 8627:0.014722281 
-0.86213412155121127 -0.96906913435263042 0.79376755192473003 0.9118722026432533 0.72352464698029473 0.78989921673237651 0.90949328126845108 0.85055855011926329 0.78145596745625623 5:0.22723566 31:0.031341496 146:0.034155148 149:0.034155148 306:0.076385475 498:0.015363121 575:0.034155148 591:0.094871496 647:0.034155148 648:0.022986744 706:0.023717874 830:0.034155148 857:0.031341496 902:0.031341496 912:0.30259637 995:0.1018473 1021:0.059175714 1069:0.031341496 1154:0.034155148 1200:0.053063052 1266:0.034155148 1358:0.026531526 1469:0.025461825 1520:0.034155148 1554:0.034155148 1592:0.058690356 1628:0.020651855 1632:0.034155148 1783:0.068310297 1789:0.034155148 1807:0.034155148 1916:0.12536598 1920:0.094024489 1924:0.034155148 1948:0.034155148 1950:0.31341496 1956:0.029345178 1973:0.17607107 2079:0.034155148 2082:0.034155148 2128:0.068310297 2129:0.034155148 2151:0.068310297 2277:0.022986744 2306:0.088035535 2401:0.034155148 2483:0.034155148 2514:0.18389395 2650:0.034155148 2766:0.068310297 2783:0.062682992 2791:0.031341496 2818:0.094024489 2819:0.034155148 2820:0.034155148 2871:0.034155148 2872:0.034155148 2873:0.33356056 2879:0.027796714 2880:0.034155148 2887:0.034155148 2893:0.034155148 2894:0.034155148 2920:0.034155148 2953:0.034155148 2996:0.034155148 3063:0.027796714 3064:0.2641066 3087:0.094871496 3090:0.034155148 3094:0.094024489 3104:0.034155148 3185:0.023717874 3224:0.029345178 3225:0.029345178 3235:0.029345178 3255:0.031341496 3299:0.034155148 3301:0.034155148 3351:0.058690356 3358:0.017838203 3369:0.039450476 3380:0.034155148 3384:0.034155148 3388:0.034155148 3532:0.053063052 3589:0.13662059 3649:0.10086546 3673:0.033823172 3729:0.034155148 3874:0.055593427 3961:0.058690356 4012:0.034155148 4262:0.034155148 4271:0.025461825 4361:0.034155148 4426:0.034155148 4455:0.034155148 4456:0.083390141 4474:0.025461825 4592:0.034155148 4730:0.045406747 4804:0.068310297 4877:0.027796714 4902:0.029345178 4910:0.031341496 4915:0.049070416 4962:0.034155148 4983:0.025461825 4985:0.021721556 5161:0.20493089 5181:0.029345178 5274:0.034155148 5309:0.034155148 5318:0.031341496 5322:0.034155148 5377:0.17077574 5538:0.017838203 5592:0.034155148 5733:0.034155148 5799:0.029345178 5868:0.027796714 5908:0.034155148 5915:0.034155148 5930:0.018907904 6010:0.068310297 6011:0.034155148 6012:0.11738071 6015:0.068310297 6017:0.034155148 6030:0.027796714 6072:0.10246545 6089:0.10246545 6135:0.031341496 6199:0.10246545 6266:0.040346183 6415:0.022986744 6418:0.031341496 6442:0.025461825 6473:0.034155148 6586:0.034155148 6667:0.022325356 6677:0.034155148 6850:0.031341496 6924:0.1061261 6958:0.034155148 7110:0.034155148 7276:0.034155148 7287:0.031341496 7293:0.083390141 7297:0.034155148 7329:0.026531526 7368:0.034155148 7423:0.034155148 7492:0.027796714 7522:0.058690356 7523:0.034155148 7524:0.034155148 7527:0.068310297 7544:0.034155148 7586:0.068310297 7639:0.031341496 7704:0.026531526 7808:0.068310297 7809:0.10246545 7852:0.031341496 7894:0.17077574 8016:0.034155148 8162:0.029345178 8229:0.034155148 8290:0.034155148 8377:0.10246545 8473:0.031341496 8489:0.062682992 
-0.68620575893039881 -0.77415124183302853 0.61400502768502396 0.70017824401396356 0.62811743228979144 0.61568260370037986 0.77402339165237422 0.69960049334783048 0.66646425078663618 43:0.034037018 100:0.029489454 230:0.040207679 280:0.043817284 289:0.043817284 307:0.043817284 313:0.048513505 316:0.043817284 560:0.043817284 644:0.040207679 648:0.029489454 691:0.043817284 734:0.043817284 912:0.025879849 1035:0.040207679 1066:0.03266471 1157:0.043817284 1166:0.040207679 1394:0.034037018 1407:0.043817284 1454:0.043817284 1456:0.043817284 1558:0.043817284 1569:0.030427413 1578:0.043817284 1726:0.027866358 1727:0.062951925 1784:0.043817284 1883:0.037646623 1919:0.040207679 1920:0.52269982 2025:0.075293246 2049:0.043817284 2101:0.043817284 2108:0.043817284 2122:0.043817284 2183:0.21908642 2199:0.043817284 2438:0.022470306 2475:0.040207679 2514:0.058978907 2515:0.12062304 2521:0.043817284 2524:0.043817284 2529:0.037646623 2561:0.035660114 2574:0.080415357 2590:0.040207679 2591:0.043817284 2592:0.043817284 2593:0.13145185 2597:0.024765599 2608:0.043817284 2683:0.12170965 2717:0.03266471 2728:0.043817284 2742:0.043817284 2753:0.043817284 2759:0.043817284 2761:0.037646623 2765:0.043817284 2778:0.03266471 2779:0.043817284 2802:0.080415357 2809:0.043817284 3000:0.040207679 3038:0.043817284 3056:0.043817284 3072:0.040207679 3087:0.060854826 3215:0.043817284 3256:0.043817284 3351:0.037646623 3392:0.043817284 3408:0.035660114 3413:0.043817284 3418:0.043817284 3571:0.037646623 3599:0.040207679 3607:0.03266471 3647:0.043817284 3690:0.040207679 3743:0.040207679 3753:0.043817284 3791:0.034037018 3847:0.043817284 3965:0.035660114 4026:0.043817284 4091:0.043817284 4193:0.043817284 4350:0.080415357 4463:0.034037018 4479:0.091282239 4508:0.043817284 4531:0.035660114 4623:0.043817284 4684:0.035660114 4740:0.043817284 4749:0.043817284 4759:0.043817284 4760:0.043817284 4774:0.075293246 4801:0.043817284 4803:0.043817284 4829:0.043817284 4844:0.03266471 4926:0.043817284 5014:0.13065884 5058:0.043817284 5091:0.043817284 5095:0.043817284 5316:0.2629037 5332:0.043817284 5345:0.043817284 5348:0.043817284 5459:0.043817284 5462:0.043817284 5466:0.043817284 5467:0.043817284 5510:0.087634567 5511:0.043817284 5556:0.043817284 5574:0.037646623 5576:0.040207679 5578:0.087634567 5583:0.043817284 5675:0.16083071 5678:0.043817284 5698:0.043817284 5701:0.043817284 5764:0.043817284 5815:0.043817284 5850:0.043817284 5874:0.040207679 5910:0.043817284 5911:0.11293987 5929:0.043817284 5930:0.024256753 5952:0.043817284 6071:0.12062304 6143:0.040207679 6153:0.043817284 6219:0.087634567 6248:0.040207679 6278:0.040207679 6279:0.040207679 6359:0.043817284 6367:0.040207679 6370:0.081461361 6467:0.043817284 6493:0.029489454 6494:0.087634567 6515:0.031475963 6550:0.043817284 6559:0.043817284 6624:0.043817284 6631:0.040207679 6637:0.027153787 6725:0.043817284 6816:0.043817284 6821:0.043817284 6873:0.043817284 6875:0.043817284 6962:0.043817284 7043:0.043817284 7044:0.17830057 7047:0.037646623 7078:0.043817284 7079:0.043817284 7189:0.043817284 7215:0.043817284 7242:0.040207679 7245:0.043817284 7246:0.040207679 7248:0.040207679 7295:0.040207679 7306:0.035660114 7312:0.043817284 7385:0.037646623 7392:0.075915906 7476:0.043817284 7511:0.043817284 7537:0.043817284 7649:0.037646623 7652:0.025305302 7699:0.03266471 7746:0.043817284 7758:0.043817284 7768:0.043817284 7895:0.043817284 7958:0.049531197 7962:0.075293246 7984:0.035660114 8050:0.080415357 8052:0.043817284 8076:0.057281932 8105:0.043817284 8110:0.043817284 8134:0.043817284 8135:0.087634567 8162:0.037646623 8166:0.043817284 8218:0.12062304 8219:0.043817284 8220:0.087634567 8227:0.043817284 8399:0.075293246 8465:0.080415357 8498:0.043817284 8587:0.080415357 8613:0.043817284 8659:0.043817284 8671:0.043817284 
-0.74180707351490349 -0.88105971093723501 0.66710980645088536 0.8197758201377392 0.67173908477618149 0.75636996915839128 0.82186919223526045 0.73004844134414648 0.69952110076821983 38:0.19572833 112:0.13218285 810:0.13218285 2361:0.19572833 2764:0.19572833 3083:0.091630641 3961:0.18326128 4021:0.064485644 4721:0.17359109 5198:0.19572833 5860:0.21329965 5930:0.11808027 5961:0.19572833 6255:0.21329965 6296:0.21329965 6574:0.17359109 6637:0.066091423 6726:0.21329965 6791:0.18326128 6810:0.16568996 7246:0.19572833 7478:0.21329965 8048:0.19572833 8049:0.2935925 8472:0.44435593 
-0.66775456467751049 -0.76150825373426922 0.65754141707760905 0.6981754835694004 0.64030279096886256 0.62394120641456774 0.75579815490759616 0.69252419497447537 0.65553964625387062 489:0.20479957 542:0.20479957 1021:0.059137794 1035:0.56378542 1313:0.087979121 1636:0.087979121 1882:0.083336704 1973:0.087979121 2229:0.10239978 2504:0.10239978 2514:0.068916041 2811:0.10239978 2879:0.083336704 2993:0.10239978 3064:0.087979121 3101:0.10239978 3103:0.10239978 3255:0.093964237 3497:0.093964237 3509:0.087979121 3528:0.10239978 3571:0.087979121 3961:0.087979121 3965:0.083336704 4752:0.20479957 4928:0.10239978 5579:0.10239978 5807:0.10239978 5813:0.083336704 5932:0.10239978 6018:0.093964237 6070:0.20479957 6220:0.10239978 6336:0.093964237 6587:0.18792847 6637:0.063457652 6944:0.10239978 6987:0.079543574 7213:0.17595824 7270:0.10239978 7305:0.087979121 7321:0.093964237 7658:0.10239978 7674:0.14221605 7766:0.10239978 7852:0.093964237 7945:0.087979121 7958:0.11575304 8076:0.066933149 8185:0.18792847 8465:0.093964237 8472:0.14221605 8473:0.093964237 
-0.81753398618045137 -0.92393323024627361 0.74557784269729621 0.85616068159068193 0.74399028564301117 0.72375786777524442 0.90962977741116147 0.82178591363839548 0.77061698390599753 43:0.078356904 113:0.10087214 1015:0.10087214 1069:0.092562434 1133:0.072461077 1200:0.078356904 1282:0.086666606 1808:0.072461077 2073:0.082093447 2104:0.10087214 2836:0.10087214 2841:0.086666606 2991:0.075197702 3055:0.086666606 3063:0.32837379 3080:0.092562434 3492:0.10087214 3671:0.10087214 3679:0.10087214 3690:0.092562434 4049:0.10087214 4205:0.092562434 4358:0.10087214 4400:0.092562434 4463:0.078356904 4465:0.092562434 4670:0.086666606 5121:0.092562434 5147:0.10087214 5217:0.092562434 5218:0.20174427 5390:0.50436068 5481:0.054733606 5593:0.092562434 5775:0.10087214 5845:0.092562434 5847:0.10087214 5930:0.055841673 5999:0.082093447 6045:0.10087214 6126:0.30261641 6172:0.10087214 6311:0.092562434 6636:0.086666606 6637:0.06251096 6949:0.10087214 7018:0.10087214 7328:0.092562434 7392:0.058255548 7704:0.078356904 7739:0.30261641 7945:0.086666606 7958:0.057013092 8053:0.078356904 8201:0.10087214 8308:0.086666606 8309:0.092562434 
-0.69292049833215896 -0.79259199840859751 0.64595600668517084 0.7132324773364096 0.6427472319675176 0.61659651870507337 0.75304289244974532 0.73117323365632914 0.68610825308310586 128:0.13563472 810:0.084053504 953:0.13563472 1047:0.10111236 1638:0.13563472 1916:0.12446133 2597:0.076660959 2629:0.12446133 2630:0.13563472 2679:0.12446133 3085:0.11653368 3172:0.13563472 3232:0.13563472 3403:0.13563472 3455:0.10536028 4014:0.13563472 4021:0.082011313 4175:0.084053504 4310:0.066033266 4353:0.12446133 4745:0.13563472 4817:0.11653368 4891:0.13563472 5501:0.13563472 5507:0.11038451 5593:0.24892265 5679:0.13563472 5758:0.13563472 5759:0.13563472 5912:0.13563472 5961:0.12446133 6370:0.084053504 6536:0.10111236 6637:0.084053504 6753:0.11038451 6979:0.13563472 7288:0.13563472 7392:0.078331591 7700:0.11038451 7845:0.13563472 7853:0.11653368 7958:0.076660959 7967:0.13563472 8049:0.12446133 8076:0.08865701 8203:0.54253888 8469:0.13563472 8472:0.094186889 
-0.74302868919481568 -0.86008606796708398 0.7037806466228741 0.76983238560385103 0.69285552369548342 0.72509627915523012 0.83123162741557266 0.75915928579762149 0.73141426809654198 90:0.10851009 516:0.14555823 967:0.13356736 1846:0.11846064 2472:0.14555823 2503:0.11846064 2755:0.14555823 3282:0.082269746 3361:0.14555823 3649:0.085971214 3868:0.14555823 4175:0.090203156 4384:0.14555823 4479:0.10107793 4622:0.080579392 5017:0.14555823 5121:0.13356736 5507:0.11846064 5700:0.14555823 5891:0.13356736 6147:0.14555823 6208:0.14555823 6336:0.13356736 6379:0.58223294 6498:0.12505969 6588:0.14555823 6647:0.11846064 7085:0.14555823 7252:0.29111647 7392:0.25218782 7932:0.12505969 7958:0.082269746 7984:0.11846064 8451:0.13356736 8472:0.10107793 
-0.84710361432373094 -0.96869481884014308 0.81807449589201453 0.84008643099438907 0.78413821112629867 0.7650443801298773 0.93383449935929952 0.86503866019645625 0.81752826152378544 601:0.087442866 781:0.12172809 825:0.12172809 1066:0.090745306 1484:0.12172809 1601:0.18911539 1650:0.081924177 1780:0.12172809 1883:0.10458548 1929:0.10458548 1973:0.10458548 2133:0.12172809 2134:0.12172809 2366:0.12172809 2422:0.12172809 2802:0.11170031 3055:0.10458548 3099:0.12172809 3304:0.12172809 3381:0.09906679 3501:0.12172809 3797:0.12172809 3848:0.12172809 3996:0.12172809 4310:0.059262875 4327:0.12172809 4685:0.11170031 5064:0.11170031 5075:0.12172809 5219:0.12172809 5494:0.11170031 5705:0.12172809 6244:0.11170031 6547:0.11170031 6636:0.10458548 6637:0.075435499 7072:0.09906679 7073:0.12172809 7074:0.36518427 7075:0.12172809 7080:0.24345618 7082:0.12172809 7083:0.12172809 7145:0.11170031 7304:0.12172809 7392:0.070300253 7421:0.12172809 7632:0.11170031 8207:0.12172809 8295:0.12172809 8487:0.12172809 8543:0.11170031 8544:0.24345618 8645:0.12172809 8672:0.12172809 8673:0.24345618 
-0.91691487635886204 -1.0222853284895375 -0.97388721677149537 0.9288739602113063 0.84713806270282743 0.87757773325808353 1.0020733445439596 0.97879872031148274 0.90150737098543743 5:0.026249688 16:0.013518684 33:0.067073777 60:0.022357926 62:0.030094198 94:0.067073777 119:0.020516112 156:0.016667285 235:0.019209324 300:0.022357926 363:0.022357926 374:0.020516112 422:0.022357926 517:0.022357926 519:0.013855317 581:0.018195701 591:0.062102786 617:0.036391402 628:0.089431703 639:0.041032224 706:0.015525696 711:0.022357926 735:0.031051393 842:0.022357926 886:0.022357926 912:0.013205285 943:0.071094543 985:0.044715852 1041:0.014614155 1042:0.020516112 1047:0.03333457 1092:0.015047099 1230:0.022357926 1307:0.021413431 1308:0.1641289 1352:0.018195701 1367:0.022357926 1405:0.022357926 1440:0.018195701 1441:0.022357926 1647:0.016667285 1755:0.01736751 1790:0.010370082 1808:0.016060723 1851:0.022357926 1853:0.022357926 1930:0.015525696 1945:0.089431703 1954:0.022357926 1983:0.041565951 2019:0.035695493 2123:0.019209324 2155:0.022357926 2208:0.044715852 2219:0.020516112 2284:0.020516112 2285:0.12309667 2310:0.031051393 2312:0.022357926 2314:0.020516112 2330:0.022357926 2357:0.020516112 2405:0.041032224 2438:0.011465554 2461:0.038736363 2469:0.03333457 2492:0.020516112 2502:0.53786108 2508:0.015525696 2511:0.020516112 2518:0.015525696 2675:0.048182168 2694:0.041032224 2862:0.082064448 2863:0.022357926 2876:0.022357926 2935:0.022357926 3049:0.018195701 3065:0.19104261 3066:0.067073777 3130:0.018195701 3168:0.019209324 3169:0.022357926 3184:0.020516112 3226:0.022357926 3258:0.016060723 3259:0.022357926 3282:0.012636735 3335:0.033210921 3358:0.035030609 3424:0.018195701 3434:0.042656726 3478:0.089431703 3539:0.014218909 3547:0.018195701 3620:0.016667285 3673:0.022140614 3682:0.020516112 3713:0.022357926 3725:0.022357926 3774:0.050001855 3782:0.019209324 3816:0.01167687 3849:0.022357926 3864:0.016060723 3875:0.018195701 3908:0.015047099 3911:0.014614155 3956:0.015047099 3960:0.057627973 3979:0.022357926 3980:0.015525696 4021:0.013518684 4025:0.022357926 4164:0.62602192 4165:0.022357926 4208:0.022357926 4253:0.020516112 4271:0.016667285 4310:0.010884874 4398:0.014218909 4407:0.022357926 4418:0.01736751 4540:0.014218909 4595:0.022357926 4634:0.016667285 4683:0.061548336 4721:0.036391402 4730:0.029723211 4757:0.022357926 4779:0.020516112 4816:0.022357926 4820:0.018195701 4899:0.022357926 4915:0.032121445 4916:0.014218909 4933:0.020516112 4977:0.015525696 5010:0.11178963 5033:0.016667285 5034:0.042656726 5123:0.015525696 5134:0.019209324 5181:0.019209324 5191:0.022357926 5206:0.041032224 5214:0.022357926 5246:0.022357926 5359:0.019209324 5465:0.019209324 5481:0.036394488 5491:0.022357926 5508:0.022357926 5562:0.01736751 5599:0.028437817 5605:0.022357926 5616:0.022357926 5618:0.019209324 5633:0.022357926 5657:0.022357926 5664:0.019209324 5690:0.022357926 5710:0.019209324 5774:0.03333457 5781:0.02475419 5854:0.022357926 5861:0.024262992 5875:0.044715852 5877:0.022357926 5878:0.061548336 5890:0.01736751 5903:0.082064448 5916:0.022357926 5928:0.022357926 5967:0.022357926 6020:0.022357926 6081:0.061548336 6105:0.020516112 6109:0.022357926 6132:0.015525696 6177:0.016667285 6181:0.022357926 6190:0.022357926 6216:0.020516112 6305:0.018195701 6370:0.013855317 6392:0.022357926 6393:0.022357926 6410:0.022357926 6476:0.044715852 6493:0.015047099 6502:0.014614155 6535:0.022357926 6536:0.016667285 6537:0.022357926 6583:0.022357926 6598:0.020516112 6599:0.022357926 6637:0.013855317 6669:0.022357926 6674:0.031051393 6676:0.015047099 6689:0.036391402 6810:0.01736751 6847:0.022357926 6866:0.016667285 6886:0.01736751 6952:0.020516112 7004:0.019209324 7016:0.038418648 7060:0.020516112 7106:0.022357926 7117:0.022357926 7146:0.054587103 7147:0.022357926 7192:0.022357926 7223:0.016667285 7228:0.022357926 7283:0.018195701 7303:0.044715852 7350:0.034735021 7364:0.019209324 7379:0.015525696 7407:0.011263633 7500:0.022357926 7503:0.067073777 7555:0.022357926 7618:0.054587103 7677:0.022357926 7770:0.061548336 7814:0.038418648 7862:0.022357926 7866:0.012377095 8017:0.034735021 8028:0.022357926 8058:0.12309667 8093:0.016060723 8119:0.022357926 8163:0.022357926 8341:0.015525696 8373:0.019209324 8592:0.022357926 8627:0.020516112 
-0.79758226468243831 -0.89001783873926921 -0.83127015300316021 0.80798310017118202 0.75167773452287545 0.76049186261202517 0.85300863286815565 0.83991736489536717 0.77243644755777441 80:0.091479368 98:0.18295874 214:0.061566495 432:0.083943428 459:0.091479368 469:0.18295874 476:0.091479368 519:0.056690215 528:0.25183029 546:0.083943428 645:0.091479368 912:0.054030556 1234:0.091479368 1521:0.074449268 1682:0.091479368 1710:0.091479368 1745:0.18295874 1776:0.050641943 1790:0.042430078 1791:0.14889854 2019:0.048683722 2139:0.091479368 2231:0.18295874 2348:0.091479368 2469:0.13639125 2511:0.083943428 2555:0.078596594 3049:0.074449268 3168:0.078596594 3340:0.091479368 3368:0.074449268 3369:0.1056621 3415:0.068195624 3533:0.14212131 3539:0.058177882 3550:0.083943428 3565:0.091479368 3853:0.059795068 3875:0.074449268 3922:0.050641943 3923:0.091479368 3960:0.078596594 4084:0.14212131 4087:0.078596594 4318:0.091479368 4609:0.091479368 4673:0.071060655 4683:0.083943428 4742:0.078596594 4761:0.091479368 4790:0.091479368 4871:0.078596594 4913:0.074449268 4915:0.13142764 4977:0.063524716 4997:0.078596594 5026:0.18295874 5230:0.054030556 5358:0.18295874 5373:0.25183029 5391:0.091479368 5392:0.091479368 5393:0.091479368 5396:0.091479368 5481:0.049637054 5591:0.083943428 5655:0.078596594 5715:0.091479368 5852:0.068195624 5994:0.083943428 6083:0.091479368 6105:0.083943428 6107:0.083943428 6364:0.091479368 6399:0.091479368 6637:0.056690215 7071:0.091479368 7388:0.078596594 7407:0.046086118 7422:0.091479368 7580:0.091479368 8260:0.091479368 8397:0.083943428 8421:0.17007065 8424:0.18295874 8450:0.2233478 8482:0.083943428 
-0.82743663874687368 -0.98344200570032192 -0.99404190563700789 0.81508438529386262 0.7515240090145785 0.72652484367131331 0.914005858180719 0.8202778092289823 0.80510089514530225 377:0.10706931 528:0.14148453 546:0.14148453 815:0.15418617 819:0.11977094 928:0.13247258 939:0.15418617 1041:0.10078308 1706:0.15418617 1790:0.071514826 1791:0.12548236 2455:0.15418617 2469:0.45976802 2931:0.114942 3033:0.15418617 3281:0.15418617 3527:0.15418617 3529:0.15418617 3922:0.085355718 4714:0.10706931 5230:0.091067139 5373:0.14148453 5481:0.16732401 5629:0.14148453 5825:0.15418617 5861:0.16732401 5994:0.14148453 6235:0.14148453 6551:0.11977094 6637:0.095549928 6717:0.15418617 7223:0.22988401 7293:0.12548236 7392:0.1780908 7407:0.07767699 8287:0.15418617 8341:0.10706931 8644:0.30837233 
-0.58891446142899673 -0.65118257649926481 -0.64581327389795695 0.60471761045562189 0.45753621583880022 0.61260423748401005 0.54740900602444797 0.62376921239566596 0.55352229658679919 5:0.16754756 9:0.024522009 36:0.028541413 50:0.02322805 91:0.021276923 97:0.028541413 99:0.028541413 101:0.028541413 112:0.088436272 255:0.028541413 256:0.019819607 282:0.022170808 306:0.021276923 367:0.05596789 404:0.088683232 419:0.026190212 427:0.11614025 444:0.028541413 498:0.038514122 511:0.044341616 518:0.028541413 532:0.026190212 558:0.028541413 591:0.079278429 653:0.049044017 654:0.028541413 803:0.053061763 810:0.017687254 827:0.028541413 828:0.026190212 836:0.024522009 845:0.057082826 859:0.024522009 957:0.057082826 990:0.028541413 991:0.02322805 1041:0.037311927 1087:0.024522009 1141:0.021276923 1303:0.028541413 1356:0.018655963 1379:0.02322805 1384:0.078570636 1469:0.021276923 1477:0.028541413 1479:0.026190212 1508:0.026190212 1546:0.022170808 1592:0.049044017 1612:0.028541413 1628:0.017257519 1636:0.49044017 1637:0.057082826 1640:0.026190212 1726:0.018151404 1727:0.020502605 1776:0.015800203 1790:0.079428689 1941:0.018655963 1946:0.059458822 1965:0.028541413 2019:0.075946207 2033:0.038417291 2070:0.022170808 2205:0.085624238 2209:0.022170808 2213:0.028541413 2310:0.019819607 2314:0.052380424 2337:0.028541413 2343:0.028541413 2367:0.088683232 2412:0.028541413 2419:0.085107692 2438:0.014636559 2461:0.049449602 2489:0.024522009 2500:0.052380424 2502:0.19617607 2508:0.019819607 2518:0.019819607 2652:0.020502605 2675:0.041005209 2710:0.057082826 2806:0.028541413 2910:0.028541413 2977:0.028541413 3015:0.020502605 3023:0.020502605 3028:0.028541413 3031:0.044341616 3046:0.024522009 3049:0.02322805 3058:0.022170808 3114:0.026190212 3130:0.02322805 3142:0.026190212 3202:0.36666297 3250:0.078570636 3293:0.021276923 3306:0.028541413 3335:0.070659999 3344:0.10476085 3358:0.029812637 3427:0.024522009 3434:0.018151404 3525:0.052380424 3539:0.19966544 3542:0.019819607 3620:0.021276923 3663:0.028541413 3673:0.014132 3675:0.037311927 3680:0.028541413 3776:0.036302808 3802:0.028541413 3811:0.026190212 3850:0.021276923 3862:0.073566026 3864:0.020502605 3874:0.16259635 3898:0.017257519 3917:0.028541413 3922:0.015800203 3956:0.019208646 3960:0.049044017 4021:0.034515038 4213:0.021276923 4214:0.028541413 4267:0.024522009 4284:0.028541413 4314:0.026190212 4414:0.024522009 4418:0.022170808 4435:0.028541413 4440:0.028541413 4443:0.057082826 4470:0.019208646 4505:0.085624238 4583:0.028541413 4597:0.09480122 4638:0.028541413 4673:0.022170808 4730:0.0252958 4785:0.02322805 4810:0.028541413 4821:0.022170808 4877:0.02322805 4911:0.028541413 4935:0.021276923 4936:0.028541413 4961:0.02322805 4977:0.019819607 5019:0.019208646 5024:0.028541413 5029:0.042553846 5033:0.042553846 5076:0.026190212 5103:0.046456099 5117:0.028541413 5123:0.019819607 5135:0.23571191 5181:0.024522009 5210:0.021276923 5232:0.019208646 5271:0.028541413 5339:0.024522009 5411:0.026190212 5428:0.019208646 5465:0.049044017 5481:0.01548668 5547:0.02322805 5591:0.026190212 5608:0.026190212 5781:0.015800203 5812:0.022170808 5828:0.15714127 5831:0.028541413 5851:0.024522009 5890:0.066512424 5892:0.021276923 5914:0.024522009 5930:0.015800203 5947:0.024522009 5986:0.020502605 6002:0.049044017 6132:0.019819607 6177:0.042553846 6213:0.028541413 6266:0.050572334 6267:0.028541413 6412:0.028541413 6415:0.019208646 6416:0.020502605 6432:0.022170808 6442:0.021276923 6493:0.019208646 6502:0.018655963 6536:0.021276923 6558:0.026190212 6647:0.046456099 6664:0.018151404 6667:0.05596789 6676:0.096043228 6705:0.028541413 6753:0.046456099 6808:0.057082826 6884:0.024522009 6885:0.026190212 6888:0.026190212 6889:0.028541413 6924:0.022170808 6943:0.019819607 6980:0.02322805 6987:0.022170808 7118:0.085624238 7146:0.069684149 7196:0.05596789 7224:0.018151404 7254:0.028541413 7296:0.021276923 7310:0.049044017 7316:0.019819607 7379:0.019819607 7392:0.016483201 7393:0.028541413 7407:0.028757587 7452:0.02322805 7491:0.028541413 7492:0.02322805 7522:0.024522009 7529:0.024522009 7579:0.028541413 7634:0.024522009 7802:0.12301563 7818:0.057082826 7846:0.022170808 7866:0.015800203 7882:0.026190212 7961:0.028541413 8093:0.020502605 8280:0.028541413 8342:0.028541413 8363:0.017687254 8396:0.020502605 8420:0.024522009 8421:0.15918529 8423:0.057082826 8527:0.026190212 8631:0.15714127 
-0.6426039349953202 -0.68654714332664646 -0.70204559895660468 0.61492385649500969 0.58864886181885179 0.56805748394717093 0.68512343270006781 0.63990912924134102 0.60626593664778305 78:0.063138685 91:0.04706834 133:0.05138458 163:0.05793741 173:0.063138685 198:0.12627737 394:0.037291668 562:0.049045773 617:0.05138458 621:0.063138685 649:0.063138685 667:0.44197079 829:0.063138685 877:0.049045773 931:0.063138685 962:0.063138685 965:0.063138685 1021:0.036463773 1024:0.05793741 1102:0.049045773 1133:0.09071082 1142:0.035686085 1222:0.054247047 1256:0.05793741 1300:0.054247047 1314:0.041270311 1634:0.063138685 1636:0.054247047 1808:0.13606623 1891:0.05793741 2114:0.11587482 2198:0.063138685 2290:0.05793741 2380:0.05793741 2421:0.063138685 2426:0.063138685 2469:0.04706834 2508:0.043844499 2533:0.049045773 2549:0.042492942 2648:0.05793741 2658:0.05793741 2673:0.063138685 3015:0.04535541 3097:0.063138685 3246:0.063138685 3282:0.035686085 3415:0.14120502 3434:0.040154136 3509:0.054247047 3530:0.054247047 3540:0.05793741 3542:0.043844499 3559:0.063138685 3563:0.12627737 3922:0.034952862 3956:0.084985885 3957:0.063138685 3964:0.063138685 4218:0.063138685 4221:0.05793741 4310:0.030738837 4480:0.049045773 4758:0.063138685 4792:0.05793741 4865:0.038176703 5060:0.063138685 5081:0.05793741 5123:0.043844499 5158:0.063138685 5177:0.063138685 5461:0.46349928 5740:0.049045773 5741:0.054247047 5774:0.04706834 5923:0.063138685 5930:0.10485858 5993:0.05793741 6128:0.05793741 6132:0.043844499 6266:0.037291668 6268:0.10276916 6300:0.063138685 6301:0.063138685 6450:0.063138685 6549:0.054247047 6987:0.049045773 7023:0.05793741 7072:0.41107664 7293:0.05138458 7379:0.043844499 7407:0.03180845 7535:0.063138685 7629:0.10276916 7653:0.063138685 7685:0.063138685 7791:0.063138685 7833:0.063138685 7980:0.05793741 8144:0.041270311 8197:0.063138685 8421:0.039127354 8444:0.042492942 8471:0.05793741 8475:0.063138685 8579:0.10849409 
-0.51649439502121086 -0.58296023938491304 -0.6170165181150975 0.55771994450859907 0.49252678028051122 0.5057763014141804 0.57410728125689403 0.66952969205667734 0.53676942583160936 50:0.058977634 156:0.054023588 161:0.072468633 162:0.072468633 291:0.05205754 329:0.072468633 404:0.056293224 430:0.28987453 519:0.044909169 562:0.056293224 587:0.072468633 601:0.05205754 619:0.058977634 622:0.066498771 648:0.048772087 753:0.072468633 783:0.072468633 787:0.058977634 816:0.066498771 877:0.056293224 935:0.048772087 951:0.066498771 1019:0.050323362 1021:0.041851993 1086:0.062263086 1101:0.062263086 1142:0.040959387 1173:0.072468633 1313:0.12452617 1314:0.047368789 1511:0.056293224 1726:0.092175355 1741:0.072468633 1790:0.033612495 1795:0.072468633 1808:0.05205754 1974:0.043818041 2160:0.066498771 2197:0.062263086 2240:0.072468633 2313:0.12452617 2335:0.056293224 2341:0.072468633 2380:0.066498771 2403:0.072468633 2461:0.20925996 2505:0.047368789 2508:0.050323362 2516:0.072468633 2533:0.11258645 2549:0.048772087 2583:0.072468633 2628:0.13299754 2717:0.054023588 2778:0.054023588 3008:0.056293224 3015:0.05205754 3064:0.062263086 3087:0.050323362 3415:0.16207076 3515:0.054023588 3542:0.050323362 3675:0.047368789 3922:0.040117815 3956:0.048772087 3958:0.13299754 3959:0.072468633 4021:0.043818041 4067:0.062263086 4175:0.044909169 4310:0.035281089 4316:0.062263086 4480:0.056293224 4485:0.072468633 4597:0.040117815 4865:0.043818041 4890:0.072468633 4916:0.046087678 4935:0.054023588 4953:0.050323362 5123:0.050323362 5125:0.056293224 5176:0.072468633 5740:0.50663902 5774:0.054023588 5784:0.14493727 5793:0.072468633 5852:0.054023588 5890:0.056293224 5930:0.080235631 6132:0.050323362 6268:0.058977634 6365:0.072468633 6430:0.072468633 6442:0.054023588 6534:0.13299754 6541:0.058977634 6549:0.062263086 6616:0.072468633 6667:0.047368789 6736:0.062263086 6789:0.072468633 7072:0.29488817 7379:0.050323362 7388:0.062263086 7407:0.036508757 7480:0.047368789 7628:0.072468633 7629:0.058977634 7633:0.062263086 8054:0.062263086 8062:0.058977634 8093:0.05205754 8144:0.047368789 8181:0.072468633 8325:0.072468633 8363:0.044909169 8421:0.089818339 8616:0.054023588 
